digraph Tree {
node [shape=box, style="filled", color="black", fontname="helvetica"] ;
edge [fontname="helvetica"] ;
0 [label="c5 <= 0.5\nentropy = 1.426\nsamples = 16465\nvalue = [3504, 3505, 9429, 27]\nclass = 2", fillcolor="#a4d2f3"] ;
1 [label="c5 <= -0.5\nentropy = 1.313\nsamples = 10978\nvalue = [2892.0, 1293.0, 6778.0, 15.0]\nclass = 2", fillcolor="#a0d0f3"] ;
0 -> 1 [labeldistance=2.5, labelangle=45, headlabel="True"] ;
2 [label="c7 <= 0.5\nentropy = 1.065\nsamples = 5531\nvalue = [697, 693, 4141, 0]\nclass = 2", fillcolor="#72b9ec"] ;
1 -> 2 ;
3 [label="c3 <= 0.5\nentropy = 0.959\nsamples = 3687\nvalue = [586, 237, 2864, 0]\nclass = 2", fillcolor="#6eb7ec"] ;
2 -> 3 ;
4 [label="c7 <= -0.5\nentropy = 0.702\nsamples = 2474\nvalue = [471, 0, 2003, 0]\nclass = 2", fillcolor="#68b4eb"] ;
3 -> 4 ;
5 [label="c3 <= -0.5\nentropy = 0.486\nsamples = 1243\nvalue = [131, 0, 1112, 0]\nclass = 2", fillcolor="#50a9e8"] ;
4 -> 5 ;
6 [label="entropy = 0.0\nsamples = 629\nvalue = [0, 0, 629, 0]\nclass = 2", fillcolor="#399de5"] ;
5 -> 6 ;
7 [label="c9 <= -0.5\nentropy = 0.748\nsamples = 614\nvalue = [131, 0, 483, 0]\nclass = 2", fillcolor="#6fb8ec"] ;
5 -> 7 ;
8 [label="c2 <= 0.5\nentropy = 0.469\nsamples = 210\nvalue = [21, 0, 189, 0]\nclass = 2", fillcolor="#4fa8e8"] ;
7 -> 8 ;
9 [label="c2 <= -0.5\nentropy = 0.626\nsamples = 134\nvalue = [21, 0, 113, 0]\nclass = 2", fillcolor="#5eafea"] ;
8 -> 9 ;
10 [label="entropy = 0.0\nsamples = 64\nvalue = [0, 0, 64, 0]\nclass = 2", fillcolor="#399de5"] ;
9 -> 10 ;
11 [label="c1 <= -0.5\nentropy = 0.881\nsamples = 70\nvalue = [21, 0, 49, 0]\nclass = 2", fillcolor="#8ec7f0"] ;
9 -> 11 ;
12 [label="entropy = 0.0\nsamples = 25\nvalue = [0, 0, 25, 0]\nclass = 2", fillcolor="#399de5"] ;
11 -> 12 ;
13 [label="c1 <= 0.5\nentropy = 0.997\nsamples = 45\nvalue = [21, 0, 24, 0]\nclass = 2", fillcolor="#e6f3fc"] ;
11 -> 13 ;
14 [label="entropy = 0.0\nsamples = 21\nvalue = [21, 0, 0, 0]\nclass = 0", fillcolor="#e58139"] ;
13 -> 14 ;
15 [label="entropy = 0.0\nsamples = 24\nvalue = [0, 0, 24, 0]\nclass = 2", fillcolor="#399de5"] ;
13 -> 15 ;
16 [label="entropy = 0.0\nsamples = 76\nvalue = [0, 0, 76, 0]\nclass = 2", fillcolor="#399de5"] ;
8 -> 16 ;
17 [label="c9 <= 0.5\nentropy = 0.845\nsamples = 404\nvalue = [110.0, 0.0, 294.0, 0.0]\nclass = 2", fillcolor="#83c2ef"] ;
7 -> 17 ;
18 [label="c6 <= 0.5\nentropy = 0.989\nsamples = 194\nvalue = [85, 0, 109, 0]\nclass = 2", fillcolor="#d3e9f9"] ;
17 -> 18 ;
19 [label="c6 <= -0.5\nentropy = 0.97\nsamples = 128\nvalue = [77, 0, 51, 0]\nclass = 0", fillcolor="#f6d4bc"] ;
18 -> 19 ;
20 [label="c2 <= -0.5\nentropy = 0.573\nsamples = 59\nvalue = [8, 0, 51, 0]\nclass = 2", fillcolor="#58ace9"] ;
19 -> 20 ;
21 [label="entropy = 0.0\nsamples = 21\nvalue = [0, 0, 21, 0]\nclass = 2", fillcolor="#399de5"] ;
20 -> 21 ;
22 [label="c2 <= 0.5\nentropy = 0.742\nsamples = 38\nvalue = [8, 0, 30, 0]\nclass = 2", fillcolor="#6eb7ec"] ;
20 -> 22 ;
23 [label="c1 <= -0.5\nentropy = 0.959\nsamples = 21\nvalue = [8, 0, 13, 0]\nclass = 2", fillcolor="#b3d9f5"] ;
22 -> 23 ;
24 [label="entropy = 0.0\nsamples = 7\nvalue = [0, 0, 7, 0]\nclass = 2", fillcolor="#399de5"] ;
23 -> 24 ;
25 [label="c1 <= 0.5\nentropy = 0.985\nsamples = 14\nvalue = [8, 0, 6, 0]\nclass = 0", fillcolor="#f8e0ce"] ;
23 -> 25 ;
26 [label="entropy = 0.0\nsamples = 8\nvalue = [8, 0, 0, 0]\nclass = 0", fillcolor="#e58139"] ;
25 -> 26 ;
27 [label="entropy = 0.0\nsamples = 6\nvalue = [0, 0, 6, 0]\nclass = 2", fillcolor="#399de5"] ;
25 -> 27 ;
28 [label="entropy = 0.0\nsamples = 17\nvalue = [0, 0, 17, 0]\nclass = 2", fillcolor="#399de5"] ;
22 -> 28 ;
29 [label="entropy = 0.0\nsamples = 69\nvalue = [69, 0, 0, 0]\nclass = 0", fillcolor="#e58139"] ;
19 -> 29 ;
30 [label="c1 <= 0.5\nentropy = 0.533\nsamples = 66\nvalue = [8, 0, 58, 0]\nclass = 2", fillcolor="#54abe9"] ;
18 -> 30 ;
31 [label="c1 <= -0.5\nentropy = 0.702\nsamples = 42\nvalue = [8, 0, 34, 0]\nclass = 2", fillcolor="#68b4eb"] ;
30 -> 31 ;
32 [label="entropy = 0.0\nsamples = 21\nvalue = [0, 0, 21, 0]\nclass = 2", fillcolor="#399de5"] ;
31 -> 32 ;
33 [label="c2 <= 0.5\nentropy = 0.959\nsamples = 21\nvalue = [8, 0, 13, 0]\nclass = 2", fillcolor="#b3d9f5"] ;
31 -> 33 ;
34 [label="c2 <= -0.5\nentropy = 0.985\nsamples = 14\nvalue = [8, 0, 6, 0]\nclass = 0", fillcolor="#f8e0ce"] ;
33 -> 34 ;
35 [label="entropy = 0.0\nsamples = 6\nvalue = [0, 0, 6, 0]\nclass = 2", fillcolor="#399de5"] ;
34 -> 35 ;
36 [label="entropy = 0.0\nsamples = 8\nvalue = [8, 0, 0, 0]\nclass = 0", fillcolor="#e58139"] ;
34 -> 36 ;
37 [label="entropy = 0.0\nsamples = 7\nvalue = [0, 0, 7, 0]\nclass = 2", fillcolor="#399de5"] ;
33 -> 37 ;
38 [label="entropy = 0.0\nsamples = 24\nvalue = [0, 0, 24, 0]\nclass = 2", fillcolor="#399de5"] ;
30 -> 38 ;
39 [label="c1 <= 0.5\nentropy = 0.527\nsamples = 210\nvalue = [25, 0, 185, 0]\nclass = 2", fillcolor="#54aae9"] ;
17 -> 39 ;
40 [label="c1 <= -0.5\nentropy = 0.688\nsamples = 136\nvalue = [25, 0, 111, 0]\nclass = 2", fillcolor="#66b3eb"] ;
39 -> 40 ;
41 [label="entropy = 0.0\nsamples = 65\nvalue = [0, 0, 65, 0]\nclass = 2", fillcolor="#399de5"] ;
40 -> 41 ;
42 [label="c2 <= -0.5\nentropy = 0.936\nsamples = 71\nvalue = [25, 0, 46, 0]\nclass = 2", fillcolor="#a5d2f3"] ;
40 -> 42 ;
43 [label="entropy = 0.0\nsamples = 25\nvalue = [0, 0, 25, 0]\nclass = 2", fillcolor="#399de5"] ;
42 -> 43 ;
44 [label="c2 <= 0.5\nentropy = 0.995\nsamples = 46\nvalue = [25, 0, 21, 0]\nclass = 0", fillcolor="#fbebdf"] ;
42 -> 44 ;
45 [label="entropy = 0.0\nsamples = 25\nvalue = [25, 0, 0, 0]\nclass = 0", fillcolor="#e58139"] ;
44 -> 45 ;
46 [label="entropy = 0.0\nsamples = 21\nvalue = [0, 0, 21, 0]\nclass = 2", fillcolor="#399de5"] ;
44 -> 46 ;
47 [label="entropy = 0.0\nsamples = 74\nvalue = [0, 0, 74, 0]\nclass = 2", fillcolor="#399de5"] ;
39 -> 47 ;
48 [label="c1 <= -0.5\nentropy = 0.85\nsamples = 1231\nvalue = [340, 0, 891, 0]\nclass = 2", fillcolor="#85c2ef"] ;
4 -> 48 ;
49 [label="c9 <= 0.5\nentropy = 0.588\nsamples = 424\nvalue = [60, 0, 364, 0]\nclass = 2", fillcolor="#5aade9"] ;
48 -> 49 ;
50 [label="c9 <= -0.5\nentropy = 0.752\nsamples = 278\nvalue = [60, 0, 218, 0]\nclass = 2", fillcolor="#6fb8ec"] ;
49 -> 50 ;
51 [label="entropy = 0.0\nsamples = 138\nvalue = [0, 0, 138, 0]\nclass = 2", fillcolor="#399de5"] ;
50 -> 51 ;
52 [label="c8 <= -0.5\nentropy = 0.985\nsamples = 140\nvalue = [60, 0, 80, 0]\nclass = 2", fillcolor="#cee6f8"] ;
50 -> 52 ;
53 [label="c3 <= -0.5\nentropy = 0.599\nsamples = 48\nvalue = [7, 0, 41, 0]\nclass = 2", fillcolor="#5baee9"] ;
52 -> 53 ;
54 [label="entropy = 0.0\nsamples = 25\nvalue = [0, 0, 25, 0]\nclass = 2", fillcolor="#399de5"] ;
53 -> 54 ;
55 [label="c6 <= -0.5\nentropy = 0.887\nsamples = 23\nvalue = [7, 0, 16, 0]\nclass = 2", fillcolor="#90c8f0"] ;
53 -> 55 ;
56 [label="entropy = 0.0\nsamples = 9\nvalue = [0, 0, 9, 0]\nclass = 2", fillcolor="#399de5"] ;
55 -> 56 ;
57 [label="c6 <= 0.5\nentropy = 1.0\nsamples = 14\nvalue = [7, 0, 7, 0]\nclass = 0", fillcolor="#ffffff"] ;
55 -> 57 ;
58 [label="entropy = 0.0\nsamples = 7\nvalue = [7, 0, 0, 0]\nclass = 0", fillcolor="#e58139"] ;
57 -> 58 ;
59 [label="entropy = 0.0\nsamples = 7\nvalue = [0, 0, 7, 0]\nclass = 2", fillcolor="#399de5"] ;
57 -> 59 ;
60 [label="c8 <= 0.5\nentropy = 0.983\nsamples = 92\nvalue = [53, 0, 39, 0]\nclass = 0", fillcolor="#f8decb"] ;
52 -> 60 ;
61 [label="entropy = 0.0\nsamples = 46\nvalue = [46, 0, 0, 0]\nclass = 0", fillcolor="#e58139"] ;
60 -> 61 ;
62 [label="c3 <= -0.5\nentropy = 0.615\nsamples = 46\nvalue = [7, 0, 39, 0]\nclass = 2", fillcolor="#5dafea"] ;
60 -> 62 ;
63 [label="entropy = 0.0\nsamples = 21\nvalue = [0, 0, 21, 0]\nclass = 2", fillcolor="#399de5"] ;
62 -> 63 ;
64 [label="c6 <= -0.5\nentropy = 0.855\nsamples = 25\nvalue = [7.0, 0.0, 18.0, 0.0]\nclass = 2", fillcolor="#86c3ef"] ;
62 -> 64 ;
65 [label="entropy = 0.0\nsamples = 9\nvalue = [0, 0, 9, 0]\nclass = 2", fillcolor="#399de5"] ;
64 -> 65 ;
66 [label="c6 <= 0.5\nentropy = 0.989\nsamples = 16\nvalue = [7, 0, 9, 0]\nclass = 2", fillcolor="#d3e9f9"] ;
64 -> 66 ;
67 [label="entropy = 0.0\nsamples = 7\nvalue = [7, 0, 0, 0]\nclass = 0", fillcolor="#e58139"] ;
66 -> 67 ;
68 [label="entropy = 0.0\nsamples = 9\nvalue = [0, 0, 9, 0]\nclass = 2", fillcolor="#399de5"] ;
66 -> 68 ;
69 [label="entropy = 0.0\nsamples = 146\nvalue = [0, 0, 146, 0]\nclass = 2", fillcolor="#399de5"] ;
49 -> 69 ;
70 [label="c1 <= 0.5\nentropy = 0.931\nsamples = 807\nvalue = [280, 0, 527, 0]\nclass = 2", fillcolor="#a2d1f3"] ;
48 -> 70 ;
71 [label="c4 <= -0.5\nentropy = 0.997\nsamples = 409\nvalue = [218, 0, 191, 0]\nclass = 0", fillcolor="#fcefe6"] ;
70 -> 71 ;
72 [label="c3 <= -0.5\nentropy = 0.841\nsamples = 126\nvalue = [34, 0, 92, 0]\nclass = 2", fillcolor="#82c1ef"] ;
71 -> 72 ;
73 [label="c8 <= 0.5\nentropy = 0.549\nsamples = 63\nvalue = [8, 0, 55, 0]\nclass = 2", fillcolor="#56abe9"] ;
72 -> 73 ;
74 [label="c8 <= -0.5\nentropy = 0.712\nsamples = 41\nvalue = [8, 0, 33, 0]\nclass = 2", fillcolor="#69b5eb"] ;
73 -> 74 ;
75 [label="entropy = 0.0\nsamples = 20\nvalue = [0, 0, 20, 0]\nclass = 2", fillcolor="#399de5"] ;
74 -> 75 ;
76 [label="c9 <= 0.5\nentropy = 0.959\nsamples = 21\nvalue = [8, 0, 13, 0]\nclass = 2", fillcolor="#b3d9f5"] ;
74 -> 76 ;
77 [label="c9 <= -0.5\nentropy = 0.985\nsamples = 14\nvalue = [8, 0, 6, 0]\nclass = 0", fillcolor="#f8e0ce"] ;
76 -> 77 ;
78 [label="entropy = 0.0\nsamples = 6\nvalue = [0, 0, 6, 0]\nclass = 2", fillcolor="#399de5"] ;
77 -> 78 ;
79 [label="entropy = 0.0\nsamples = 8\nvalue = [8, 0, 0, 0]\nclass = 0", fillcolor="#e58139"] ;
77 -> 79 ;
80 [label="entropy = 0.0\nsamples = 7\nvalue = [0, 0, 7, 0]\nclass = 2", fillcolor="#399de5"] ;
76 -> 80 ;
81 [label="entropy = 0.0\nsamples = 22\nvalue = [0, 0, 22, 0]\nclass = 2", fillcolor="#399de5"] ;
73 -> 81 ;
82 [label="c2 <= -0.5\nentropy = 0.978\nsamples = 63\nvalue = [26, 0, 37, 0]\nclass = 2", fillcolor="#c4e2f7"] ;
72 -> 82 ;
83 [label="c9 <= -0.5\nentropy = 0.667\nsamples = 23\nvalue = [4, 0, 19, 0]\nclass = 2", fillcolor="#63b2ea"] ;
82 -> 83 ;
84 [label="entropy = 0.0\nsamples = 8\nvalue = [0, 0, 8, 0]\nclass = 2", fillcolor="#399de5"] ;
83 -> 84 ;
85 [label="c9 <= 0.5\nentropy = 0.837\nsamples = 15\nvalue = [4, 0, 11, 0]\nclass = 2", fillcolor="#81c1ee"] ;
83 -> 85 ;
86 [label="c8 <= 0.5\nentropy = 0.985\nsamples = 7\nvalue = [4, 0, 3, 0]\nclass = 0", fillcolor="#f8e0ce"] ;
85 -> 86 ;
87 [label="c8 <= -0.5\nentropy = 0.918\nsamples = 6\nvalue = [4, 0, 2, 0]\nclass = 0", fillcolor="#f2c09c"] ;
86 -> 87 ;
88 [label="c6 <= -0.5\nentropy = 0.918\nsamples = 3\nvalue = [1, 0, 2, 0]\nclass = 2", fillcolor="#9ccef2"] ;
87 -> 88 ;
89 [label="entropy = 0.0\nsamples = 1\nvalue = [0, 0, 1, 0]\nclass = 2", fillcolor="#399de5"] ;
88 -> 89 ;
90 [label="c6 <= 0.5\nentropy = 1.0\nsamples = 2\nvalue = [1, 0, 1, 0]\nclass = 0", fillcolor="#ffffff"] ;
88 -> 90 ;
91 [label="entropy = 0.0\nsamples = 1\nvalue = [1, 0, 0, 0]\nclass = 0", fillcolor="#e58139"] ;
90 -> 91 ;
92 [label="entropy = 0.0\nsamples = 1\nvalue = [0, 0, 1, 0]\nclass = 2", fillcolor="#399de5"] ;
90 -> 92 ;
93 [label="entropy = 0.0\nsamples = 3\nvalue = [3, 0, 0, 0]\nclass = 0", fillcolor="#e58139"] ;
87 -> 93 ;
94 [label="entropy = 0.0\nsamples = 1\nvalue = [0, 0, 1, 0]\nclass = 2", fillcolor="#399de5"] ;
86 -> 94 ;
95 [label="entropy = 0.0\nsamples = 8\nvalue = [0, 0, 8, 0]\nclass = 2", fillcolor="#399de5"] ;
85 -> 95 ;
96 [label="c2 <= 0.5\nentropy = 0.993\nsamples = 40\nvalue = [22, 0, 18, 0]\nclass = 0", fillcolor="#fae8db"] ;
82 -> 96 ;
97 [label="entropy = 0.0\nsamples = 18\nvalue = [18, 0, 0, 0]\nclass = 0", fillcolor="#e58139"] ;
96 -> 97 ;
98 [label="c9 <= 0.5\nentropy = 0.684\nsamples = 22\nvalue = [4, 0, 18, 0]\nclass = 2", fillcolor="#65b3eb"] ;
96 -> 98 ;
99 [label="c9 <= -0.5\nentropy = 0.863\nsamples = 14\nvalue = [4, 0, 10, 0]\nclass = 2", fillcolor="#88c4ef"] ;
98 -> 99 ;
100 [label="entropy = 0.0\nsamples = 6\nvalue = [0, 0, 6, 0]\nclass = 2", fillcolor="#399de5"] ;
99 -> 100 ;
101 [label="c6 <= 0.5\nentropy = 1.0\nsamples = 8\nvalue = [4, 0, 4, 0]\nclass = 0", fillcolor="#ffffff"] ;
99 -> 101 ;
102 [label="c6 <= -0.5\nentropy = 0.918\nsamples = 6\nvalue = [4, 0, 2, 0]\nclass = 0", fillcolor="#f2c09c"] ;
101 -> 102 ;
103 [label="c8 <= -0.5\nentropy = 0.918\nsamples = 3\nvalue = [1, 0, 2, 0]\nclass = 2", fillcolor="#9ccef2"] ;
102 -> 103 ;
104 [label="entropy = 0.0\nsamples = 1\nvalue = [0, 0, 1, 0]\nclass = 2", fillcolor="#399de5"] ;
103 -> 104 ;
105 [label="c8 <= 0.5\nentropy = 1.0\nsamples = 2\nvalue = [1, 0, 1, 0]\nclass = 0", fillcolor="#ffffff"] ;
103 -> 105 ;
106 [label="entropy = 0.0\nsamples = 1\nvalue = [1, 0, 0, 0]\nclass = 0", fillcolor="#e58139"] ;
105 -> 106 ;
107 [label="entropy = 0.0\nsamples = 1\nvalue = [0, 0, 1, 0]\nclass = 2", fillcolor="#399de5"] ;
105 -> 107 ;
108 [label="entropy = 0.0\nsamples = 3\nvalue = [3, 0, 0, 0]\nclass = 0", fillcolor="#e58139"] ;
102 -> 108 ;
109 [label="entropy = 0.0\nsamples = 2\nvalue = [0, 0, 2, 0]\nclass = 2", fillcolor="#399de5"] ;
101 -> 109 ;
110 [label="entropy = 0.0\nsamples = 8\nvalue = [0, 0, 8, 0]\nclass = 2", fillcolor="#399de5"] ;
98 -> 110 ;
111 [label="c4 <= 0.5\nentropy = 0.934\nsamples = 283\nvalue = [184, 0, 99, 0]\nclass = 0", fillcolor="#f3c5a4"] ;
71 -> 111 ;
112 [label="entropy = 0.0\nsamples = 143\nvalue = [143, 0, 0, 0]\nclass = 0", fillcolor="#e58139"] ;
111 -> 112 ;
113 [label="c3 <= -0.5\nentropy = 0.872\nsamples = 140\nvalue = [41, 0, 99, 0]\nclass = 2", fillcolor="#8bc6f0"] ;
111 -> 113 ;
114 [label="c9 <= -0.5\nentropy = 0.564\nsamples = 68\nvalue = [9, 0, 59, 0]\nclass = 2", fillcolor="#57ace9"] ;
113 -> 114 ;
115 [label="entropy = 0.0\nsamples = 24\nvalue = [0, 0, 24, 0]\nclass = 2", fillcolor="#399de5"] ;
114 -> 115 ;
116 [label="c9 <= 0.5\nentropy = 0.731\nsamples = 44\nvalue = [9, 0, 35, 0]\nclass = 2", fillcolor="#6cb6ec"] ;
114 -> 116 ;
117 [label="c8 <= -0.5\nentropy = 0.943\nsamples = 25\nvalue = [9, 0, 16, 0]\nclass = 2", fillcolor="#a8d4f4"] ;
116 -> 117 ;
118 [label="entropy = 0.0\nsamples = 8\nvalue = [0, 0, 8, 0]\nclass = 2", fillcolor="#399de5"] ;
117 -> 118 ;
119 [label="c8 <= 0.5\nentropy = 0.998\nsamples = 17\nvalue = [9, 0, 8, 0]\nclass = 0", fillcolor="#fcf1e9"] ;
117 -> 119 ;
120 [label="entropy = 0.0\nsamples = 9\nvalue = [9, 0, 0, 0]\nclass = 0", fillcolor="#e58139"] ;
119 -> 120 ;
121 [label="entropy = 0.0\nsamples = 8\nvalue = [0, 0, 8, 0]\nclass = 2", fillcolor="#399de5"] ;
119 -> 121 ;
122 [label="entropy = 0.0\nsamples = 19\nvalue = [0, 0, 19, 0]\nclass = 2", fillcolor="#399de5"] ;
116 -> 122 ;
123 [label="c2 <= -0.5\nentropy = 0.991\nsamples = 72\nvalue = [32, 0, 40, 0]\nclass = 2", fillcolor="#d7ebfa"] ;
113 -> 123 ;
124 [label="c9 <= -0.5\nentropy = 0.706\nsamples = 26\nvalue = [5, 0, 21, 0]\nclass = 2", fillcolor="#68b4eb"] ;
123 -> 124 ;
125 [label="entropy = 0.0\nsamples = 9\nvalue = [0, 0, 9, 0]\nclass = 2", fillcolor="#399de5"] ;
124 -> 125 ;
126 [label="c9 <= 0.5\nentropy = 0.874\nsamples = 17\nvalue = [5, 0, 12, 0]\nclass = 2", fillcolor="#8bc6f0"] ;
124 -> 126 ;
127 [label="c8 <= -0.5\nentropy = 0.954\nsamples = 8\nvalue = [5, 0, 3, 0]\nclass = 0", fillcolor="#f5cdb0"] ;
126 -> 127 ;
128 [label="c6 <= -0.5\nentropy = 0.918\nsamples = 3\nvalue = [1, 0, 2, 0]\nclass = 2", fillcolor="#9ccef2"] ;
127 -> 128 ;
129 [label="entropy = 0.0\nsamples = 1\nvalue = [0, 0, 1, 0]\nclass = 2", fillcolor="#399de5"] ;
128 -> 129 ;
130 [label="c6 <= 0.5\nentropy = 1.0\nsamples = 2\nvalue = [1, 0, 1, 0]\nclass = 0", fillcolor="#ffffff"] ;
128 -> 130 ;
131 [label="entropy = 0.0\nsamples = 1\nvalue = [1, 0, 0, 0]\nclass = 0", fillcolor="#e58139"] ;
130 -> 131 ;
132 [label="entropy = 0.0\nsamples = 1\nvalue = [0, 0, 1, 0]\nclass = 2", fillcolor="#399de5"] ;
130 -> 132 ;
133 [label="c6 <= -0.5\nentropy = 0.722\nsamples = 5\nvalue = [4, 0, 1, 0]\nclass = 0", fillcolor="#eca06a"] ;
127 -> 133 ;
134 [label="c8 <= 0.5\nentropy = 1.0\nsamples = 2\nvalue = [1, 0, 1, 0]\nclass = 0", fillcolor="#ffffff"] ;
133 -> 134 ;
135 [label="entropy = 0.0\nsamples = 1\nvalue = [1, 0, 0, 0]\nclass = 0", fillcolor="#e58139"] ;
134 -> 135 ;
136 [label="entropy = 0.0\nsamples = 1\nvalue = [0, 0, 1, 0]\nclass = 2", fillcolor="#399de5"] ;
134 -> 136 ;
137 [label="entropy = 0.0\nsamples = 3\nvalue = [3, 0, 0, 0]\nclass = 0", fillcolor="#e58139"] ;
133 -> 137 ;
138 [label="entropy = 0.0\nsamples = 9\nvalue = [0, 0, 9, 0]\nclass = 2", fillcolor="#399de5"] ;
126 -> 138 ;
139 [label="c2 <= 0.5\nentropy = 0.978\nsamples = 46\nvalue = [27.0, 0.0, 19.0, 0.0]\nclass = 0", fillcolor="#f7dac4"] ;
123 -> 139 ;
140 [label="entropy = 0.0\nsamples = 22\nvalue = [22, 0, 0, 0]\nclass = 0", fillcolor="#e58139"] ;
139 -> 140 ;
141 [label="c9 <= 0.5\nentropy = 0.738\nsamples = 24\nvalue = [5, 0, 19, 0]\nclass = 2", fillcolor="#6db7ec"] ;
139 -> 141 ;
142 [label="c9 <= -0.5\nentropy = 0.896\nsamples = 16\nvalue = [5, 0, 11, 0]\nclass = 2", fillcolor="#93caf1"] ;
141 -> 142 ;
143 [label="entropy = 0.0\nsamples = 7\nvalue = [0, 0, 7, 0]\nclass = 2", fillcolor="#399de5"] ;
142 -> 143 ;
144 [label="c6 <= -0.5\nentropy = 0.991\nsamples = 9\nvalue = [5, 0, 4, 0]\nclass = 0", fillcolor="#fae6d7"] ;
142 -> 144 ;
145 [label="c8 <= -0.5\nentropy = 0.918\nsamples = 3\nvalue = [1, 0, 2, 0]\nclass = 2", fillcolor="#9ccef2"] ;
144 -> 145 ;
146 [label="entropy = 0.0\nsamples = 1\nvalue = [0, 0, 1, 0]\nclass = 2", fillcolor="#399de5"] ;
145 -> 146 ;
147 [label="c8 <= 0.5\nentropy = 1.0\nsamples = 2\nvalue = [1, 0, 1, 0]\nclass = 0", fillcolor="#ffffff"] ;
145 -> 147 ;
148 [label="entropy = 0.0\nsamples = 1\nvalue = [1, 0, 0, 0]\nclass = 0", fillcolor="#e58139"] ;
147 -> 148 ;
149 [label="entropy = 0.0\nsamples = 1\nvalue = [0, 0, 1, 0]\nclass = 2", fillcolor="#399de5"] ;
147 -> 149 ;
150 [label="c6 <= 0.5\nentropy = 0.918\nsamples = 6\nvalue = [4, 0, 2, 0]\nclass = 0", fillcolor="#f2c09c"] ;
144 -> 150 ;
151 [label="entropy = 0.0\nsamples = 3\nvalue = [3, 0, 0, 0]\nclass = 0", fillcolor="#e58139"] ;
150 -> 151 ;
152 [label="c8 <= -0.5\nentropy = 0.918\nsamples = 3\nvalue = [1, 0, 2, 0]\nclass = 2", fillcolor="#9ccef2"] ;
150 -> 152 ;
153 [label="entropy = 0.0\nsamples = 1\nvalue = [0, 0, 1, 0]\nclass = 2", fillcolor="#399de5"] ;
152 -> 153 ;
154 [label="c8 <= 0.5\nentropy = 1.0\nsamples = 2\nvalue = [1, 0, 1, 0]\nclass = 0", fillcolor="#ffffff"] ;
152 -> 154 ;
155 [label="entropy = 0.0\nsamples = 1\nvalue = [1, 0, 0, 0]\nclass = 0", fillcolor="#e58139"] ;
154 -> 155 ;
156 [label="entropy = 0.0\nsamples = 1\nvalue = [0, 0, 1, 0]\nclass = 2", fillcolor="#399de5"] ;
154 -> 156 ;
157 [label="entropy = 0.0\nsamples = 8\nvalue = [0, 0, 8, 0]\nclass = 2", fillcolor="#399de5"] ;
141 -> 157 ;
158 [label="c9 <= -0.5\nentropy = 0.624\nsamples = 398\nvalue = [62, 0, 336, 0]\nclass = 2", fillcolor="#5eafea"] ;
70 -> 158 ;
159 [label="entropy = 0.0\nsamples = 141\nvalue = [0, 0, 141, 0]\nclass = 2", fillcolor="#399de5"] ;
158 -> 159 ;
160 [label="c9 <= 0.5\nentropy = 0.797\nsamples = 257\nvalue = [62, 0, 195, 0]\nclass = 2", fillcolor="#78bced"] ;
158 -> 160 ;
161 [label="c8 <= -0.5\nentropy = 0.998\nsamples = 131\nvalue = [62, 0, 69, 0]\nclass = 2", fillcolor="#ebf5fc"] ;
160 -> 161 ;
162 [label="c3 <= -0.5\nentropy = 0.65\nsamples = 42\nvalue = [7, 0, 35, 0]\nclass = 2", fillcolor="#61b1ea"] ;
161 -> 162 ;
163 [label="entropy = 0.0\nsamples = 19\nvalue = [0, 0, 19, 0]\nclass = 2", fillcolor="#399de5"] ;
162 -> 163 ;
164 [label="c6 <= -0.5\nentropy = 0.887\nsamples = 23\nvalue = [7, 0, 16, 0]\nclass = 2", fillcolor="#90c8f0"] ;
162 -> 164 ;
165 [label="entropy = 0.0\nsamples = 8\nvalue = [0, 0, 8, 0]\nclass = 2", fillcolor="#399de5"] ;
164 -> 165 ;
166 [label="c6 <= 0.5\nentropy = 0.997\nsamples = 15\nvalue = [7, 0, 8, 0]\nclass = 2", fillcolor="#e6f3fc"] ;
164 -> 166 ;
167 [label="entropy = 0.0\nsamples = 7\nvalue = [7, 0, 0, 0]\nclass = 0", fillcolor="#e58139"] ;
166 -> 167 ;
168 [label="entropy = 0.0\nsamples = 8\nvalue = [0, 0, 8, 0]\nclass = 2", fillcolor="#399de5"] ;
166 -> 168 ;
169 [label="c8 <= 0.5\nentropy = 0.959\nsamples = 89\nvalue = [55.0, 0.0, 34.0, 0.0]\nclass = 0", fillcolor="#f5cfb3"] ;
161 -> 169 ;
170 [label="entropy = 0.0\nsamples = 47\nvalue = [47, 0, 0, 0]\nclass = 0", fillcolor="#e58139"] ;
169 -> 170 ;
171 [label="c3 <= -0.5\nentropy = 0.702\nsamples = 42\nvalue = [8, 0, 34, 0]\nclass = 2", fillcolor="#68b4eb"] ;
169 -> 171 ;
172 [label="entropy = 0.0\nsamples = 21\nvalue = [0, 0, 21, 0]\nclass = 2", fillcolor="#399de5"] ;
171 -> 172 ;
173 [label="c6 <= -0.5\nentropy = 0.959\nsamples = 21\nvalue = [8, 0, 13, 0]\nclass = 2", fillcolor="#b3d9f5"] ;
171 -> 173 ;
174 [label="entropy = 0.0\nsamples = 7\nvalue = [0, 0, 7, 0]\nclass = 2", fillcolor="#399de5"] ;
173 -> 174 ;
175 [label="c6 <= 0.5\nentropy = 0.985\nsamples = 14\nvalue = [8, 0, 6, 0]\nclass = 0", fillcolor="#f8e0ce"] ;
173 -> 175 ;
176 [label="entropy = 0.0\nsamples = 8\nvalue = [8, 0, 0, 0]\nclass = 0", fillcolor="#e58139"] ;
175 -> 176 ;
177 [label="entropy = 0.0\nsamples = 6\nvalue = [0, 0, 6, 0]\nclass = 2", fillcolor="#399de5"] ;
175 -> 177 ;
178 [label="entropy = 0.0\nsamples = 126\nvalue = [0, 0, 126, 0]\nclass = 2", fillcolor="#399de5"] ;
160 -> 178 ;
179 [label="c7 <= -0.5\nentropy = 1.133\nsamples = 1213\nvalue = [115.0, 237.0, 861.0, 0.0]\nclass = 2", fillcolor="#80c0ee"] ;
3 -> 179 ;
180 [label="c1 <= 0.5\nentropy = 0.73\nsamples = 617\nvalue = [0, 126, 491, 0]\nclass = 2", fillcolor="#6cb6ec"] ;
179 -> 180 ;
181 [label="c9 <= 0.5\nentropy = 0.487\nsamples = 416\nvalue = [0, 44, 372, 0]\nclass = 2", fillcolor="#50a9e8"] ;
180 -> 181 ;
182 [label="entropy = 0.0\nsamples = 276\nvalue = [0, 0, 276, 0]\nclass = 2", fillcolor="#399de5"] ;
181 -> 182 ;
183 [label="c6 <= 0.5\nentropy = 0.898\nsamples = 140\nvalue = [0, 44, 96, 0]\nclass = 2", fillcolor="#94caf1"] ;
181 -> 183 ;
184 [label="entropy = 0.0\nsamples = 96\nvalue = [0, 0, 96, 0]\nclass = 2", fillcolor="#399de5"] ;
183 -> 184 ;
185 [label="entropy = 0.0\nsamples = 44\nvalue = [0, 44, 0, 0]\nclass = 1", fillcolor="#47e539"] ;
183 -> 185 ;
186 [label="c2 <= 0.5\nentropy = 0.975\nsamples = 201\nvalue = [0, 82, 119, 0]\nclass = 2", fillcolor="#c1e1f7"] ;
180 -> 186 ;
187 [label="c6 <= 0.5\nentropy = 0.506\nsamples = 134\nvalue = [0, 15, 119, 0]\nclass = 2", fillcolor="#52a9e8"] ;
186 -> 187 ;
188 [label="entropy = 0.0\nsamples = 90\nvalue = [0, 0, 90, 0]\nclass = 2", fillcolor="#399de5"] ;
187 -> 188 ;
189 [label="c9 <= 0.5\nentropy = 0.926\nsamples = 44\nvalue = [0.0, 15.0, 29.0, 0.0]\nclass = 2", fillcolor="#9fd0f2"] ;
187 -> 189 ;
190 [label="entropy = 0.0\nsamples = 29\nvalue = [0, 0, 29, 0]\nclass = 2", fillcolor="#399de5"] ;
189 -> 190 ;
191 [label="entropy = 0.0\nsamples = 15\nvalue = [0, 15, 0, 0]\nclass = 1", fillcolor="#47e539"] ;
189 -> 191 ;
192 [label="entropy = 0.0\nsamples = 67\nvalue = [0, 67, 0, 0]\nclass = 1", fillcolor="#47e539"] ;
186 -> 192 ;
193 [label="c9 <= 0.5\nentropy = 1.337\nsamples = 596\nvalue = [115, 111, 370, 0]\nclass = 2", fillcolor="#96cbf1"] ;
179 -> 193 ;
194 [label="c1 <= 0.5\nentropy = 1.199\nsamples = 404\nvalue = [97, 37, 270, 0]\nclass = 2", fillcolor="#8fc8f0"] ;
193 -> 194 ;
195 [label="c9 <= -0.5\nentropy = 0.88\nsamples = 274\nvalue = [82, 0, 192, 0]\nclass = 2", fillcolor="#8ec7f0"] ;
194 -> 195 ;
196 [label="c1 <= -0.5\nentropy = 0.625\nsamples = 141\nvalue = [22, 0, 119, 0]\nclass = 2", fillcolor="#5eafea"] ;
195 -> 196 ;
197 [label="entropy = 0.0\nsamples = 71\nvalue = [0, 0, 71, 0]\nclass = 2", fillcolor="#399de5"] ;
196 -> 197 ;
198 [label="c4 <= -0.5\nentropy = 0.898\nsamples = 70\nvalue = [22, 0, 48, 0]\nclass = 2", fillcolor="#94caf1"] ;
196 -> 198 ;
199 [label="entropy = 0.0\nsamples = 24\nvalue = [0, 0, 24, 0]\nclass = 2", fillcolor="#399de5"] ;
198 -> 199 ;
200 [label="c4 <= 0.5\nentropy = 0.999\nsamples = 46\nvalue = [22, 0, 24, 0]\nclass = 2", fillcolor="#eff7fd"] ;
198 -> 200 ;
201 [label="entropy = 0.0\nsamples = 22\nvalue = [22, 0, 0, 0]\nclass = 0", fillcolor="#e58139"] ;
200 -> 201 ;
202 [label="entropy = 0.0\nsamples = 24\nvalue = [0, 0, 24, 0]\nclass = 2", fillcolor="#399de5"] ;
200 -> 202 ;
203 [label="c8 <= -0.5\nentropy = 0.993\nsamples = 133\nvalue = [60, 0, 73, 0]\nclass = 2", fillcolor="#dceefa"] ;
195 -> 203 ;
204 [label="c1 <= -0.5\nentropy = 0.658\nsamples = 47\nvalue = [8, 0, 39, 0]\nclass = 2", fillcolor="#62b1ea"] ;
203 -> 204 ;
205 [label="entropy = 0.0\nsamples = 23\nvalue = [0, 0, 23, 0]\nclass = 2", fillcolor="#399de5"] ;
204 -> 205 ;
206 [label="c4 <= -0.5\nentropy = 0.918\nsamples = 24\nvalue = [8, 0, 16, 0]\nclass = 2", fillcolor="#9ccef2"] ;
204 -> 206 ;
207 [label="entropy = 0.0\nsamples = 9\nvalue = [0, 0, 9, 0]\nclass = 2", fillcolor="#399de5"] ;
206 -> 207 ;
208 [label="c4 <= 0.5\nentropy = 0.997\nsamples = 15\nvalue = [8, 0, 7, 0]\nclass = 0", fillcolor="#fcefe6"] ;
206 -> 208 ;
209 [label="entropy = 0.0\nsamples = 8\nvalue = [8, 0, 0, 0]\nclass = 0", fillcolor="#e58139"] ;
208 -> 209 ;
210 [label="entropy = 0.0\nsamples = 7\nvalue = [0, 0, 7, 0]\nclass = 2", fillcolor="#399de5"] ;
208 -> 210 ;
211 [label="c8 <= 0.5\nentropy = 0.968\nsamples = 86\nvalue = [52, 0, 34, 0]\nclass = 0", fillcolor="#f6d3ba"] ;
203 -> 211 ;
212 [label="entropy = 0.0\nsamples = 45\nvalue = [45, 0, 0, 0]\nclass = 0", fillcolor="#e58139"] ;
211 -> 212 ;
213 [label="c1 <= -0.5\nentropy = 0.659\nsamples = 41\nvalue = [7.0, 0.0, 34.0, 0.0]\nclass = 2", fillcolor="#62b1ea"] ;
211 -> 213 ;
214 [label="entropy = 0.0\nsamples = 20\nvalue = [0, 0, 20, 0]\nclass = 2", fillcolor="#399de5"] ;
213 -> 214 ;
215 [label="c4 <= -0.5\nentropy = 0.918\nsamples = 21\nvalue = [7, 0, 14, 0]\nclass = 2", fillcolor="#9ccef2"] ;
213 -> 215 ;
216 [label="entropy = 0.0\nsamples = 7\nvalue = [0, 0, 7, 0]\nclass = 2", fillcolor="#399de5"] ;
215 -> 216 ;
217 [label="c4 <= 0.5\nentropy = 1.0\nsamples = 14\nvalue = [7, 0, 7, 0]\nclass = 0", fillcolor="#ffffff"] ;
215 -> 217 ;
218 [label="entropy = 0.0\nsamples = 7\nvalue = [7, 0, 0, 0]\nclass = 0", fillcolor="#e58139"] ;
217 -> 218 ;
219 [label="entropy = 0.0\nsamples = 7\nvalue = [0, 0, 7, 0]\nclass = 2", fillcolor="#399de5"] ;
217 -> 219 ;
220 [label="c2 <= 0.5\nentropy = 1.318\nsamples = 130\nvalue = [15, 37, 78, 0]\nclass = 2", fillcolor="#a8d4f4"] ;
194 -> 220 ;
221 [label="c9 <= -0.5\nentropy = 0.637\nsamples = 93\nvalue = [15, 0, 78, 0]\nclass = 2", fillcolor="#5fb0ea"] ;
220 -> 221 ;
222 [label="entropy = 0.0\nsamples = 47\nvalue = [0, 0, 47, 0]\nclass = 2", fillcolor="#399de5"] ;
221 -> 222 ;
223 [label="c8 <= -0.5\nentropy = 0.911\nsamples = 46\nvalue = [15, 0, 31, 0]\nclass = 2", fillcolor="#99ccf2"] ;
221 -> 223 ;
224 [label="entropy = 0.0\nsamples = 18\nvalue = [0, 0, 18, 0]\nclass = 2", fillcolor="#399de5"] ;
223 -> 224 ;
225 [label="c8 <= 0.5\nentropy = 0.996\nsamples = 28\nvalue = [15, 0, 13, 0]\nclass = 0", fillcolor="#fceee5"] ;
223 -> 225 ;
226 [label="entropy = 0.0\nsamples = 15\nvalue = [15, 0, 0, 0]\nclass = 0", fillcolor="#e58139"] ;
225 -> 226 ;
227 [label="entropy = 0.0\nsamples = 13\nvalue = [0, 0, 13, 0]\nclass = 2", fillcolor="#399de5"] ;
225 -> 227 ;
228 [label="entropy = 0.0\nsamples = 37\nvalue = [0, 37, 0, 0]\nclass = 1", fillcolor="#47e539"] ;
220 -> 228 ;
229 [label="c6 <= 0.5\nentropy = 1.34\nsamples = 192\nvalue = [18, 74, 100, 0]\nclass = 2", fillcolor="#d3e9f9"] ;
193 -> 229 ;
230 [label="c1 <= 0.5\nentropy = 1.039\nsamples = 132\nvalue = [18, 14, 100, 0]\nclass = 2", fillcolor="#71b9ec"] ;
229 -> 230 ;
231 [label="c1 <= -0.5\nentropy = 0.718\nsamples = 91\nvalue = [18, 0, 73, 0]\nclass = 2", fillcolor="#6ab5eb"] ;
230 -> 231 ;
232 [label="entropy = 0.0\nsamples = 43\nvalue = [0, 0, 43, 0]\nclass = 2", fillcolor="#399de5"] ;
231 -> 232 ;
233 [label="c4 <= -0.5\nentropy = 0.954\nsamples = 48\nvalue = [18, 0, 30, 0]\nclass = 2", fillcolor="#b0d8f5"] ;
231 -> 233 ;
234 [label="entropy = 0.0\nsamples = 16\nvalue = [0, 0, 16, 0]\nclass = 2", fillcolor="#399de5"] ;
233 -> 234 ;
235 [label="c4 <= 0.5\nentropy = 0.989\nsamples = 32\nvalue = [18, 0, 14, 0]\nclass = 0", fillcolor="#f9e3d3"] ;
233 -> 235 ;
236 [label="entropy = 0.0\nsamples = 18\nvalue = [18, 0, 0, 0]\nclass = 0", fillcolor="#e58139"] ;
235 -> 236 ;
237 [label="entropy = 0.0\nsamples = 14\nvalue = [0, 0, 14, 0]\nclass = 2", fillcolor="#399de5"] ;
235 -> 237 ;
238 [label="c2 <= 0.5\nentropy = 0.926\nsamples = 41\nvalue = [0.0, 14.0, 27.0, 0.0]\nclass = 2", fillcolor="#a0d0f2"] ;
230 -> 238 ;
239 [label="entropy = 0.0\nsamples = 27\nvalue = [0, 0, 27, 0]\nclass = 2", fillcolor="#399de5"] ;
238 -> 239 ;
240 [label="entropy = 0.0\nsamples = 14\nvalue = [0, 14, 0, 0]\nclass = 1", fillcolor="#47e539"] ;
238 -> 240 ;
241 [label="entropy = 0.0\nsamples = 60\nvalue = [0, 60, 0, 0]\nclass = 1", fillcolor="#47e539"] ;
229 -> 241 ;
242 [label="c9 <= 0.5\nentropy = 1.11\nsamples = 1844\nvalue = [111, 456, 1277, 0]\nclass = 2", fillcolor="#8ac5f0"] ;
2 -> 242 ;
243 [label="c1 <= 0.5\nentropy = 0.944\nsamples = 1242\nvalue = [98.0, 164.0, 980.0, 0.0]\nclass = 2", fillcolor="#69b5eb"] ;
242 -> 243 ;
244 [label="c3 <= -0.5\nentropy = 0.459\nsamples = 835\nvalue = [81, 0, 754, 0]\nclass = 2", fillcolor="#4ea8e8"] ;
243 -> 244 ;
245 [label="entropy = 0.0\nsamples = 280\nvalue = [0, 0, 280, 0]\nclass = 2", fillcolor="#399de5"] ;
244 -> 245 ;
246 [label="c3 <= 0.5\nentropy = 0.6\nsamples = 555\nvalue = [81, 0, 474, 0]\nclass = 2", fillcolor="#5baee9"] ;
244 -> 246 ;
247 [label="c1 <= -0.5\nentropy = 0.872\nsamples = 277\nvalue = [81, 0, 196, 0]\nclass = 2", fillcolor="#8bc6f0"] ;
246 -> 247 ;
248 [label="c9 <= -0.5\nentropy = 0.602\nsamples = 143\nvalue = [21, 0, 122, 0]\nclass = 2", fillcolor="#5baee9"] ;
247 -> 248 ;
249 [label="entropy = 0.0\nsamples = 74\nvalue = [0, 0, 74, 0]\nclass = 2", fillcolor="#399de5"] ;
248 -> 249 ;
250 [label="c6 <= -0.5\nentropy = 0.887\nsamples = 69\nvalue = [21, 0, 48, 0]\nclass = 2", fillcolor="#90c8f0"] ;
248 -> 250 ;
251 [label="entropy = 0.0\nsamples = 26\nvalue = [0, 0, 26, 0]\nclass = 2", fillcolor="#399de5"] ;
250 -> 251 ;
252 [label="c6 <= 0.5\nentropy = 1.0\nsamples = 43\nvalue = [21, 0, 22, 0]\nclass = 2", fillcolor="#f6fbfe"] ;
250 -> 252 ;
253 [label="entropy = 0.0\nsamples = 21\nvalue = [21, 0, 0, 0]\nclass = 0", fillcolor="#e58139"] ;
252 -> 253 ;
254 [label="entropy = 0.0\nsamples = 22\nvalue = [0, 0, 22, 0]\nclass = 2", fillcolor="#399de5"] ;
252 -> 254 ;
255 [label="c2 <= -0.5\nentropy = 0.992\nsamples = 134\nvalue = [60, 0, 74, 0]\nclass = 2", fillcolor="#daecfa"] ;
247 -> 255 ;
256 [label="c9 <= -0.5\nentropy = 0.667\nsamples = 46\nvalue = [8, 0, 38, 0]\nclass = 2", fillcolor="#63b2ea"] ;
255 -> 256 ;
257 [label="entropy = 0.0\nsamples = 22\nvalue = [0, 0, 22, 0]\nclass = 2", fillcolor="#399de5"] ;
256 -> 257 ;
258 [label="c6 <= -0.5\nentropy = 0.918\nsamples = 24\nvalue = [8, 0, 16, 0]\nclass = 2", fillcolor="#9ccef2"] ;
256 -> 258 ;
259 [label="entropy = 0.0\nsamples = 8\nvalue = [0, 0, 8, 0]\nclass = 2", fillcolor="#399de5"] ;
258 -> 259 ;
260 [label="c6 <= 0.5\nentropy = 1.0\nsamples = 16\nvalue = [8, 0, 8, 0]\nclass = 0", fillcolor="#ffffff"] ;
258 -> 260 ;
261 [label="entropy = 0.0\nsamples = 8\nvalue = [8, 0, 0, 0]\nclass = 0", fillcolor="#e58139"] ;
260 -> 261 ;
262 [label="entropy = 0.0\nsamples = 8\nvalue = [0, 0, 8, 0]\nclass = 2", fillcolor="#399de5"] ;
260 -> 262 ;
263 [label="c2 <= 0.5\nentropy = 0.976\nsamples = 88\nvalue = [52, 0, 36, 0]\nclass = 0", fillcolor="#f7d8c2"] ;
255 -> 263 ;
264 [label="entropy = 0.0\nsamples = 44\nvalue = [44, 0, 0, 0]\nclass = 0", fillcolor="#e58139"] ;
263 -> 264 ;
265 [label="c9 <= -0.5\nentropy = 0.684\nsamples = 44\nvalue = [8, 0, 36, 0]\nclass = 2", fillcolor="#65b3eb"] ;
263 -> 265 ;
266 [label="entropy = 0.0\nsamples = 20\nvalue = [0, 0, 20, 0]\nclass = 2", fillcolor="#399de5"] ;
265 -> 266 ;
267 [label="c6 <= -0.5\nentropy = 0.918\nsamples = 24\nvalue = [8, 0, 16, 0]\nclass = 2", fillcolor="#9ccef2"] ;
265 -> 267 ;
268 [label="entropy = 0.0\nsamples = 9\nvalue = [0, 0, 9, 0]\nclass = 2", fillcolor="#399de5"] ;
267 -> 268 ;
269 [label="c6 <= 0.5\nentropy = 0.997\nsamples = 15\nvalue = [8, 0, 7, 0]\nclass = 0", fillcolor="#fcefe6"] ;
267 -> 269 ;
270 [label="entropy = 0.0\nsamples = 8\nvalue = [8, 0, 0, 0]\nclass = 0", fillcolor="#e58139"] ;
269 -> 270 ;
271 [label="entropy = 0.0\nsamples = 7\nvalue = [0, 0, 7, 0]\nclass = 2", fillcolor="#399de5"] ;
269 -> 271 ;
272 [label="entropy = 0.0\nsamples = 278\nvalue = [0, 0, 278, 0]\nclass = 2", fillcolor="#399de5"] ;
246 -> 272 ;
273 [label="c4 <= 0.5\nentropy = 1.191\nsamples = 407\nvalue = [17.0, 164.0, 226.0, 0.0]\nclass = 2", fillcolor="#cce6f8"] ;
243 -> 273 ;
274 [label="c3 <= 0.5\nentropy = 0.858\nsamples = 277\nvalue = [17, 34, 226, 0]\nclass = 2", fillcolor="#63b2ea"] ;
273 -> 274 ;
275 [label="c9 <= -0.5\nentropy = 0.439\nsamples = 187\nvalue = [17, 0, 170, 0]\nclass = 2", fillcolor="#4da7e8"] ;
274 -> 275 ;
276 [label="entropy = 0.0\nsamples = 91\nvalue = [0, 0, 91, 0]\nclass = 2", fillcolor="#399de5"] ;
275 -> 276 ;
277 [label="c3 <= -0.5\nentropy = 0.674\nsamples = 96\nvalue = [17, 0, 79, 0]\nclass = 2", fillcolor="#64b2eb"] ;
275 -> 277 ;
278 [label="entropy = 0.0\nsamples = 47\nvalue = [0, 0, 47, 0]\nclass = 2", fillcolor="#399de5"] ;
277 -> 278 ;
279 [label="c6 <= 0.5\nentropy = 0.931\nsamples = 49\nvalue = [17.0, 0.0, 32.0, 0.0]\nclass = 2", fillcolor="#a2d1f3"] ;
277 -> 279 ;
280 [label="c6 <= -0.5\nentropy = 0.997\nsamples = 32\nvalue = [17, 0, 15, 0]\nclass = 0", fillcolor="#fcf0e8"] ;
279 -> 280 ;
281 [label="entropy = 0.0\nsamples = 15\nvalue = [0, 0, 15, 0]\nclass = 2", fillcolor="#399de5"] ;
280 -> 281 ;
282 [label="entropy = 0.0\nsamples = 17\nvalue = [17, 0, 0, 0]\nclass = 0", fillcolor="#e58139"] ;
280 -> 282 ;
283 [label="entropy = 0.0\nsamples = 17\nvalue = [0, 0, 17, 0]\nclass = 2", fillcolor="#399de5"] ;
279 -> 283 ;
284 [label="c2 <= 0.5\nentropy = 0.956\nsamples = 90\nvalue = [0, 34, 56, 0]\nclass = 2", fillcolor="#b1d8f5"] ;
274 -> 284 ;
285 [label="entropy = 0.0\nsamples = 56\nvalue = [0, 0, 56, 0]\nclass = 2", fillcolor="#399de5"] ;
284 -> 285 ;
286 [label="entropy = 0.0\nsamples = 34\nvalue = [0, 34, 0, 0]\nclass = 1", fillcolor="#47e539"] ;
284 -> 286 ;
287 [label="entropy = 0.0\nsamples = 130\nvalue = [0, 130, 0, 0]\nclass = 1", fillcolor="#47e539"] ;
273 -> 287 ;
288 [label="c8 <= 0.5\nentropy = 1.129\nsamples = 602\nvalue = [13, 292, 297, 0]\nclass = 2", fillcolor="#fcfdff"] ;
242 -> 288 ;
289 [label="c1 <= 0.5\nentropy = 0.989\nsamples = 409\nvalue = [13, 99, 297, 0]\nclass = 2", fillcolor="#81c0ee"] ;
288 -> 289 ;
290 [label="c3 <= 0.5\nentropy = 0.805\nsamples = 270\nvalue = [13, 33, 224, 0]\nclass = 2", fillcolor="#5fb0ea"] ;
289 -> 290 ;
291 [label="c3 <= -0.5\nentropy = 0.377\nsamples = 178\nvalue = [13, 0, 165, 0]\nclass = 2", fillcolor="#49a5e7"] ;
290 -> 291 ;
292 [label="entropy = 0.0\nsamples = 93\nvalue = [0, 0, 93, 0]\nclass = 2", fillcolor="#399de5"] ;
291 -> 292 ;
293 [label="c1 <= -0.5\nentropy = 0.617\nsamples = 85\nvalue = [13.0, 0.0, 72.0, 0.0]\nclass = 2", fillcolor="#5dafea"] ;
291 -> 293 ;
294 [label="entropy = 0.0\nsamples = 41\nvalue = [0, 0, 41, 0]\nclass = 2", fillcolor="#399de5"] ;
293 -> 294 ;
295 [label="c2 <= -0.5\nentropy = 0.876\nsamples = 44\nvalue = [13, 0, 31, 0]\nclass = 2", fillcolor="#8cc6f0"] ;
293 -> 295 ;
296 [label="entropy = 0.0\nsamples = 17\nvalue = [0, 0, 17, 0]\nclass = 2", fillcolor="#399de5"] ;
295 -> 296 ;
297 [label="c2 <= 0.5\nentropy = 0.999\nsamples = 27\nvalue = [13, 0, 14, 0]\nclass = 2", fillcolor="#f1f8fd"] ;
295 -> 297 ;
298 [label="entropy = 0.0\nsamples = 13\nvalue = [13, 0, 0, 0]\nclass = 0", fillcolor="#e58139"] ;
297 -> 298 ;
299 [label="entropy = 0.0\nsamples = 14\nvalue = [0, 0, 14, 0]\nclass = 2", fillcolor="#399de5"] ;
297 -> 299 ;
300 [label="c6 <= 0.5\nentropy = 0.942\nsamples = 92\nvalue = [0, 33, 59, 0]\nclass = 2", fillcolor="#a8d4f4"] ;
290 -> 300 ;
301 [label="entropy = 0.0\nsamples = 59\nvalue = [0, 0, 59, 0]\nclass = 2", fillcolor="#399de5"] ;
300 -> 301 ;
302 [label="entropy = 0.0\nsamples = 33\nvalue = [0, 33, 0, 0]\nclass = 1", fillcolor="#47e539"] ;
300 -> 302 ;
303 [label="c4 <= 0.5\nentropy = 0.998\nsamples = 139\nvalue = [0, 66, 73, 0]\nclass = 2", fillcolor="#ecf6fd"] ;
289 -> 303 ;
304 [label="c3 <= 0.5\nentropy = 0.68\nsamples = 89\nvalue = [0, 16, 73, 0]\nclass = 2", fillcolor="#64b2eb"] ;
303 -> 304 ;
305 [label="entropy = 0.0\nsamples = 59\nvalue = [0, 0, 59, 0]\nclass = 2", fillcolor="#399de5"] ;
304 -> 305 ;
306 [label="c6 <= 0.5\nentropy = 0.997\nsamples = 30\nvalue = [0, 16, 14, 0]\nclass = 1", fillcolor="#e8fce6"] ;
304 -> 306 ;
307 [label="c2 <= 0.5\nentropy = 0.881\nsamples = 20\nvalue = [0, 6, 14, 0]\nclass = 2", fillcolor="#8ec7f0"] ;
306 -> 307 ;
308 [label="entropy = 0.0\nsamples = 14\nvalue = [0, 0, 14, 0]\nclass = 2", fillcolor="#399de5"] ;
307 -> 308 ;
309 [label="entropy = 0.0\nsamples = 6\nvalue = [0, 6, 0, 0]\nclass = 1", fillcolor="#47e539"] ;
307 -> 309 ;
310 [label="entropy = 0.0\nsamples = 10\nvalue = [0, 10, 0, 0]\nclass = 1", fillcolor="#47e539"] ;
306 -> 310 ;
311 [label="entropy = 0.0\nsamples = 50\nvalue = [0, 50, 0, 0]\nclass = 1", fillcolor="#47e539"] ;
303 -> 311 ;
312 [label="entropy = 0.0\nsamples = 193\nvalue = [0, 193, 0, 0]\nclass = 1", fillcolor="#47e539"] ;
288 -> 312 ;
313 [label="c1 <= 0.5\nentropy = 1.409\nsamples = 5447\nvalue = [2195, 600, 2637, 15]\nclass = 2", fillcolor="#e4f2fb"] ;
1 -> 313 ;
314 [label="c9 <= 0.5\nentropy = 1.274\nsamples = 3696\nvalue = [1679, 212, 1799, 6]\nclass = 2", fillcolor="#f3f9fd"] ;
313 -> 314 ;
315 [label="c1 <= -0.5\nentropy = 0.999\nsamples = 2492\nvalue = [1299, 0, 1193, 0]\nclass = 0", fillcolor="#fdf5ef"] ;
314 -> 315 ;
316 [label="c8 <= 0.5\nentropy = 0.928\nsamples = 1229\nvalue = [422, 0, 807, 0]\nclass = 2", fillcolor="#a1d0f3"] ;
315 -> 316 ;
317 [label="c8 <= -0.5\nentropy = 0.971\nsamples = 823\nvalue = [329.0, 0.0, 494.0, 0.0]\nclass = 2", fillcolor="#bddef6"] ;
316 -> 317 ;
318 [label="c3 <= 0.5\nentropy = 0.8\nsamples = 407\nvalue = [99, 0, 308, 0]\nclass = 2", fillcolor="#79bced"] ;
317 -> 318 ;
319 [label="c3 <= -0.5\nentropy = 0.896\nsamples = 269\nvalue = [84, 0, 185, 0]\nclass = 2", fillcolor="#93c9f1"] ;
318 -> 319 ;
320 [label="c4 <= 0.5\nentropy = 0.495\nsamples = 129\nvalue = [14, 0, 115, 0]\nclass = 2", fillcolor="#51a9e8"] ;
319 -> 320 ;
321 [label="c4 <= -0.5\nentropy = 0.655\nsamples = 83\nvalue = [14.0, 0.0, 69.0, 0.0]\nclass = 2", fillcolor="#61b1ea"] ;
320 -> 321 ;
322 [label="entropy = 0.0\nsamples = 43\nvalue = [0, 0, 43, 0]\nclass = 2", fillcolor="#399de5"] ;
321 -> 322 ;
323 [label="c6 <= 0.5\nentropy = 0.934\nsamples = 40\nvalue = [14, 0, 26, 0]\nclass = 2", fillcolor="#a4d2f3"] ;
321 -> 323 ;
324 [label="c6 <= -0.5\nentropy = 0.996\nsamples = 26\nvalue = [14, 0, 12, 0]\nclass = 0", fillcolor="#fbede3"] ;
323 -> 324 ;
325 [label="entropy = 0.0\nsamples = 12\nvalue = [0, 0, 12, 0]\nclass = 2", fillcolor="#399de5"] ;
324 -> 325 ;
326 [label="entropy = 0.0\nsamples = 14\nvalue = [14, 0, 0, 0]\nclass = 0", fillcolor="#e58139"] ;
324 -> 326 ;
327 [label="entropy = 0.0\nsamples = 14\nvalue = [0, 0, 14, 0]\nclass = 2", fillcolor="#399de5"] ;
323 -> 327 ;
328 [label="entropy = 0.0\nsamples = 46\nvalue = [0, 0, 46, 0]\nclass = 2", fillcolor="#399de5"] ;
320 -> 328 ;
329 [label="c7 <= -0.5\nentropy = 1.0\nsamples = 140\nvalue = [70, 0, 70, 0]\nclass = 0", fillcolor="#ffffff"] ;
319 -> 329 ;
330 [label="c6 <= -0.5\nentropy = 0.803\nsamples = 49\nvalue = [12, 0, 37, 0]\nclass = 2", fillcolor="#79bded"] ;
329 -> 330 ;
331 [label="entropy = 0.0\nsamples = 17\nvalue = [0, 0, 17, 0]\nclass = 2", fillcolor="#399de5"] ;
330 -> 331 ;
332 [label="c6 <= 0.5\nentropy = 0.954\nsamples = 32\nvalue = [12, 0, 20, 0]\nclass = 2", fillcolor="#b0d8f5"] ;
330 -> 332 ;
333 [label="c9 <= -0.5\nentropy = 0.874\nsamples = 17\nvalue = [12, 0, 5, 0]\nclass = 0", fillcolor="#f0b58b"] ;
332 -> 333 ;
334 [label="c4 <= -0.5\nentropy = 0.954\nsamples = 8\nvalue = [3, 0, 5, 0]\nclass = 2", fillcolor="#b0d8f5"] ;
333 -> 334 ;
335 [label="entropy = 0.0\nsamples = 3\nvalue = [0, 0, 3, 0]\nclass = 2", fillcolor="#399de5"] ;
334 -> 335 ;
336 [label="c4 <= 0.5\nentropy = 0.971\nsamples = 5\nvalue = [3, 0, 2, 0]\nclass = 0", fillcolor="#f6d5bd"] ;
334 -> 336 ;
337 [label="entropy = 0.0\nsamples = 3\nvalue = [3, 0, 0, 0]\nclass = 0", fillcolor="#e58139"] ;
336 -> 337 ;
338 [label="entropy = 0.0\nsamples = 2\nvalue = [0, 0, 2, 0]\nclass = 2", fillcolor="#399de5"] ;
336 -> 338 ;
339 [label="entropy = 0.0\nsamples = 9\nvalue = [9, 0, 0, 0]\nclass = 0", fillcolor="#e58139"] ;
333 -> 339 ;
340 [label="entropy = 0.0\nsamples = 15\nvalue = [0, 0, 15, 0]\nclass = 2", fillcolor="#399de5"] ;
332 -> 340 ;
341 [label="c7 <= 0.5\nentropy = 0.945\nsamples = 91\nvalue = [58.0, 0.0, 33.0, 0.0]\nclass = 0", fillcolor="#f4c9aa"] ;
329 -> 341 ;
342 [label="entropy = 0.0\nsamples = 47\nvalue = [47, 0, 0, 0]\nclass = 0", fillcolor="#e58139"] ;
341 -> 342 ;
343 [label="c6 <= -0.5\nentropy = 0.811\nsamples = 44\nvalue = [11, 0, 33, 0]\nclass = 2", fillcolor="#7bbeee"] ;
341 -> 343 ;
344 [label="entropy = 0.0\nsamples = 16\nvalue = [0, 0, 16, 0]\nclass = 2", fillcolor="#399de5"] ;
343 -> 344 ;
345 [label="c6 <= 0.5\nentropy = 0.967\nsamples = 28\nvalue = [11, 0, 17, 0]\nclass = 2", fillcolor="#b9dcf6"] ;
343 -> 345 ;
346 [label="c9 <= -0.5\nentropy = 0.837\nsamples = 15\nvalue = [11, 0, 4, 0]\nclass = 0", fillcolor="#eeaf81"] ;
345 -> 346 ;
347 [label="c4 <= -0.5\nentropy = 0.985\nsamples = 7\nvalue = [3, 0, 4, 0]\nclass = 2", fillcolor="#cee6f8"] ;
346 -> 347 ;
348 [label="entropy = 0.0\nsamples = 3\nvalue = [0, 0, 3, 0]\nclass = 2", fillcolor="#399de5"] ;
347 -> 348 ;
349 [label="c4 <= 0.5\nentropy = 0.811\nsamples = 4\nvalue = [3, 0, 1, 0]\nclass = 0", fillcolor="#eeab7b"] ;
347 -> 349 ;
350 [label="entropy = 0.0\nsamples = 3\nvalue = [3, 0, 0, 0]\nclass = 0", fillcolor="#e58139"] ;
349 -> 350 ;
351 [label="entropy = 0.0\nsamples = 1\nvalue = [0, 0, 1, 0]\nclass = 2", fillcolor="#399de5"] ;
349 -> 351 ;
352 [label="entropy = 0.0\nsamples = 8\nvalue = [8, 0, 0, 0]\nclass = 0", fillcolor="#e58139"] ;
346 -> 352 ;
353 [label="entropy = 0.0\nsamples = 13\nvalue = [0, 0, 13, 0]\nclass = 2", fillcolor="#399de5"] ;
345 -> 353 ;
354 [label="c6 <= -0.5\nentropy = 0.496\nsamples = 138\nvalue = [15, 0, 123, 0]\nclass = 2", fillcolor="#51a9e8"] ;
318 -> 354 ;
355 [label="entropy = 0.0\nsamples = 49\nvalue = [0, 0, 49, 0]\nclass = 2", fillcolor="#399de5"] ;
354 -> 355 ;
356 [label="c6 <= 0.5\nentropy = 0.654\nsamples = 89\nvalue = [15, 0, 74, 0]\nclass = 2", fillcolor="#61b1ea"] ;
354 -> 356 ;
357 [label="c4 <= -0.5\nentropy = 0.926\nsamples = 44\nvalue = [15.0, 0.0, 29.0, 0.0]\nclass = 2", fillcolor="#9fd0f2"] ;
356 -> 357 ;
358 [label="entropy = 0.0\nsamples = 15\nvalue = [0, 0, 15, 0]\nclass = 2", fillcolor="#399de5"] ;
357 -> 358 ;
359 [label="c4 <= 0.5\nentropy = 0.999\nsamples = 29\nvalue = [15.0, 0.0, 14.0, 0.0]\nclass = 0", fillcolor="#fdf7f2"] ;
357 -> 359 ;
360 [label="entropy = 0.0\nsamples = 15\nvalue = [15, 0, 0, 0]\nclass = 0", fillcolor="#e58139"] ;
359 -> 360 ;
361 [label="entropy = 0.0\nsamples = 14\nvalue = [0, 0, 14, 0]\nclass = 2", fillcolor="#399de5"] ;
359 -> 361 ;
362 [label="entropy = 0.0\nsamples = 45\nvalue = [0, 0, 45, 0]\nclass = 2", fillcolor="#399de5"] ;
356 -> 362 ;
363 [label="c2 <= -0.5\nentropy = 0.992\nsamples = 416\nvalue = [230, 0, 186, 0]\nclass = 0", fillcolor="#fae7d9"] ;
317 -> 363 ;
364 [label="c7 <= -0.5\nentropy = 0.884\nsamples = 139\nvalue = [42, 0, 97, 0]\nclass = 2", fillcolor="#8fc7f0"] ;
363 -> 364 ;
365 [label="c6 <= -0.5\nentropy = 0.529\nsamples = 50\nvalue = [6, 0, 44, 0]\nclass = 2", fillcolor="#54aae9"] ;
364 -> 365 ;
366 [label="entropy = 0.0\nsamples = 17\nvalue = [0, 0, 17, 0]\nclass = 2", fillcolor="#399de5"] ;
365 -> 366 ;
367 [label="c6 <= 0.5\nentropy = 0.684\nsamples = 33\nvalue = [6, 0, 27, 0]\nclass = 2", fillcolor="#65b3eb"] ;
365 -> 367 ;
368 [label="c4 <= -0.5\nentropy = 0.954\nsamples = 16\nvalue = [6, 0, 10, 0]\nclass = 2", fillcolor="#b0d8f5"] ;
367 -> 368 ;
369 [label="c9 <= -0.5\nentropy = 0.65\nsamples = 6\nvalue = [1, 0, 5, 0]\nclass = 2", fillcolor="#61b1ea"] ;
368 -> 369 ;
370 [label="entropy = 0.0\nsamples = 3\nvalue = [0, 0, 3, 0]\nclass = 2", fillcolor="#399de5"] ;
369 -> 370 ;
371 [label="c3 <= -0.5\nentropy = 0.918\nsamples = 3\nvalue = [1, 0, 2, 0]\nclass = 2", fillcolor="#9ccef2"] ;
369 -> 371 ;
372 [label="entropy = 0.0\nsamples = 1\nvalue = [0, 0, 1, 0]\nclass = 2", fillcolor="#399de5"] ;
371 -> 372 ;
373 [label="c3 <= 0.5\nentropy = 1.0\nsamples = 2\nvalue = [1, 0, 1, 0]\nclass = 0", fillcolor="#ffffff"] ;
371 -> 373 ;
374 [label="entropy = 0.0\nsamples = 1\nvalue = [1, 0, 0, 0]\nclass = 0", fillcolor="#e58139"] ;
373 -> 374 ;
375 [label="entropy = 0.0\nsamples = 1\nvalue = [0, 0, 1, 0]\nclass = 2", fillcolor="#399de5"] ;
373 -> 375 ;
376 [label="c4 <= 0.5\nentropy = 1.0\nsamples = 10\nvalue = [5, 0, 5, 0]\nclass = 0", fillcolor="#ffffff"] ;
368 -> 376 ;
377 [label="entropy = 0.0\nsamples = 4\nvalue = [4, 0, 0, 0]\nclass = 0", fillcolor="#e58139"] ;
376 -> 377 ;
378 [label="c9 <= -0.5\nentropy = 0.65\nsamples = 6\nvalue = [1, 0, 5, 0]\nclass = 2", fillcolor="#61b1ea"] ;
376 -> 378 ;
379 [label="entropy = 0.0\nsamples = 3\nvalue = [0, 0, 3, 0]\nclass = 2", fillcolor="#399de5"] ;
378 -> 379 ;
380 [label="c3 <= -0.5\nentropy = 0.918\nsamples = 3\nvalue = [1, 0, 2, 0]\nclass = 2", fillcolor="#9ccef2"] ;
378 -> 380 ;
381 [label="entropy = 0.0\nsamples = 1\nvalue = [0, 0, 1, 0]\nclass = 2", fillcolor="#399de5"] ;
380 -> 381 ;
382 [label="c3 <= 0.5\nentropy = 1.0\nsamples = 2\nvalue = [1, 0, 1, 0]\nclass = 0", fillcolor="#ffffff"] ;
380 -> 382 ;
383 [label="entropy = 0.0\nsamples = 1\nvalue = [1, 0, 0, 0]\nclass = 0", fillcolor="#e58139"] ;
382 -> 383 ;
384 [label="entropy = 0.0\nsamples = 1\nvalue = [0, 0, 1, 0]\nclass = 2", fillcolor="#399de5"] ;
382 -> 384 ;
385 [label="entropy = 0.0\nsamples = 17\nvalue = [0, 0, 17, 0]\nclass = 2", fillcolor="#399de5"] ;
367 -> 385 ;
386 [label="c7 <= 0.5\nentropy = 0.974\nsamples = 89\nvalue = [36, 0, 53, 0]\nclass = 2", fillcolor="#bfe0f7"] ;
364 -> 386 ;
387 [label="c9 <= -0.5\nentropy = 0.876\nsamples = 44\nvalue = [31, 0, 13, 0]\nclass = 0", fillcolor="#f0b68c"] ;
386 -> 387 ;
388 [label="c3 <= 0.5\nentropy = 0.988\nsamples = 23\nvalue = [10.0, 0.0, 13.0, 0.0]\nclass = 2", fillcolor="#d1e8f9"] ;
387 -> 388 ;
389 [label="c3 <= -0.5\nentropy = 0.971\nsamples = 15\nvalue = [9, 0, 6, 0]\nclass = 0", fillcolor="#f6d5bd"] ;
388 -> 389 ;
390 [label="c4 <= -0.5\nentropy = 0.592\nsamples = 7\nvalue = [1, 0, 6, 0]\nclass = 2", fillcolor="#5aade9"] ;
389 -> 390 ;
391 [label="entropy = 0.0\nsamples = 3\nvalue = [0, 0, 3, 0]\nclass = 2", fillcolor="#399de5"] ;
390 -> 391 ;
392 [label="c4 <= 0.5\nentropy = 0.811\nsamples = 4\nvalue = [1, 0, 3, 0]\nclass = 2", fillcolor="#7bbeee"] ;
390 -> 392 ;
393 [label="c6 <= 0.5\nentropy = 1.0\nsamples = 2\nvalue = [1, 0, 1, 0]\nclass = 0", fillcolor="#ffffff"] ;
392 -> 393 ;
394 [label="entropy = 0.0\nsamples = 1\nvalue = [1, 0, 0, 0]\nclass = 0", fillcolor="#e58139"] ;
393 -> 394 ;
395 [label="entropy = 0.0\nsamples = 1\nvalue = [0, 0, 1, 0]\nclass = 2", fillcolor="#399de5"] ;
393 -> 395 ;
396 [label="entropy = 0.0\nsamples = 2\nvalue = [0, 0, 2, 0]\nclass = 2", fillcolor="#399de5"] ;
392 -> 396 ;
397 [label="entropy = 0.0\nsamples = 8\nvalue = [8, 0, 0, 0]\nclass = 0", fillcolor="#e58139"] ;
389 -> 397 ;
398 [label="c4 <= -0.5\nentropy = 0.544\nsamples = 8\nvalue = [1, 0, 7, 0]\nclass = 2", fillcolor="#55abe9"] ;
388 -> 398 ;
399 [label="entropy = 0.0\nsamples = 3\nvalue = [0, 0, 3, 0]\nclass = 2", fillcolor="#399de5"] ;
398 -> 399 ;
400 [label="c6 <= 0.5\nentropy = 0.722\nsamples = 5\nvalue = [1, 0, 4, 0]\nclass = 2", fillcolor="#6ab6ec"] ;
398 -> 400 ;
401 [label="c6 <= -0.5\nentropy = 0.918\nsamples = 3\nvalue = [1, 0, 2, 0]\nclass = 2", fillcolor="#9ccef2"] ;
400 -> 401 ;
402 [label="entropy = 0.0\nsamples = 1\nvalue = [0, 0, 1, 0]\nclass = 2", fillcolor="#399de5"] ;
401 -> 402 ;
403 [label="c4 <= 0.5\nentropy = 1.0\nsamples = 2\nvalue = [1, 0, 1, 0]\nclass = 0", fillcolor="#ffffff"] ;
401 -> 403 ;
404 [label="entropy = 0.0\nsamples = 1\nvalue = [1, 0, 0, 0]\nclass = 0", fillcolor="#e58139"] ;
403 -> 404 ;
405 [label="entropy = 0.0\nsamples = 1\nvalue = [0, 0, 1, 0]\nclass = 2", fillcolor="#399de5"] ;
403 -> 405 ;
406 [label="entropy = 0.0\nsamples = 2\nvalue = [0, 0, 2, 0]\nclass = 2", fillcolor="#399de5"] ;
400 -> 406 ;
407 [label="entropy = 0.0\nsamples = 21\nvalue = [21, 0, 0, 0]\nclass = 0", fillcolor="#e58139"] ;
387 -> 407 ;
408 [label="c6 <= -0.5\nentropy = 0.503\nsamples = 45\nvalue = [5, 0, 40, 0]\nclass = 2", fillcolor="#52a9e8"] ;
386 -> 408 ;
409 [label="entropy = 0.0\nsamples = 16\nvalue = [0, 0, 16, 0]\nclass = 2", fillcolor="#399de5"] ;
408 -> 409 ;
410 [label="c6 <= 0.5\nentropy = 0.663\nsamples = 29\nvalue = [5, 0, 24, 0]\nclass = 2", fillcolor="#62b1ea"] ;
408 -> 410 ;
411 [label="c3 <= -0.5\nentropy = 0.94\nsamples = 14\nvalue = [5, 0, 9, 0]\nclass = 2", fillcolor="#a7d3f3"] ;
410 -> 411 ;
412 [label="entropy = 0.0\nsamples = 3\nvalue = [0, 0, 3, 0]\nclass = 2", fillcolor="#399de5"] ;
411 -> 412 ;
413 [label="c4 <= -0.5\nentropy = 0.994\nsamples = 11\nvalue = [5, 0, 6, 0]\nclass = 2", fillcolor="#deeffb"] ;
411 -> 413 ;
414 [label="c3 <= 0.5\nentropy = 0.811\nsamples = 4\nvalue = [1, 0, 3, 0]\nclass = 2", fillcolor="#7bbeee"] ;
413 -> 414 ;
415 [label="c9 <= -0.5\nentropy = 1.0\nsamples = 2\nvalue = [1, 0, 1, 0]\nclass = 0", fillcolor="#ffffff"] ;
414 -> 415 ;
416 [label="entropy = 0.0\nsamples = 1\nvalue = [0, 0, 1, 0]\nclass = 2", fillcolor="#399de5"] ;
415 -> 416 ;
417 [label="entropy = 0.0\nsamples = 1\nvalue = [1, 0, 0, 0]\nclass = 0", fillcolor="#e58139"] ;
415 -> 417 ;
418 [label="entropy = 0.0\nsamples = 2\nvalue = [0, 0, 2, 0]\nclass = 2", fillcolor="#399de5"] ;
414 -> 418 ;
419 [label="c4 <= 0.5\nentropy = 0.985\nsamples = 7\nvalue = [4, 0, 3, 0]\nclass = 0", fillcolor="#f8e0ce"] ;
413 -> 419 ;
420 [label="entropy = 0.0\nsamples = 3\nvalue = [3, 0, 0, 0]\nclass = 0", fillcolor="#e58139"] ;
419 -> 420 ;
421 [label="c3 <= 0.5\nentropy = 0.811\nsamples = 4\nvalue = [1, 0, 3, 0]\nclass = 2", fillcolor="#7bbeee"] ;
419 -> 421 ;
422 [label="c9 <= -0.5\nentropy = 1.0\nsamples = 2\nvalue = [1, 0, 1, 0]\nclass = 0", fillcolor="#ffffff"] ;
421 -> 422 ;
423 [label="entropy = 0.0\nsamples = 1\nvalue = [0, 0, 1, 0]\nclass = 2", fillcolor="#399de5"] ;
422 -> 423 ;
424 [label="entropy = 0.0\nsamples = 1\nvalue = [1, 0, 0, 0]\nclass = 0", fillcolor="#e58139"] ;
422 -> 424 ;
425 [label="entropy = 0.0\nsamples = 2\nvalue = [0, 0, 2, 0]\nclass = 2", fillcolor="#399de5"] ;
421 -> 425 ;
426 [label="entropy = 0.0\nsamples = 15\nvalue = [0, 0, 15, 0]\nclass = 2", fillcolor="#399de5"] ;
410 -> 426 ;
427 [label="c2 <= 0.5\nentropy = 0.906\nsamples = 277\nvalue = [188, 0, 89, 0]\nclass = 0", fillcolor="#f1bd97"] ;
363 -> 427 ;
428 [label="entropy = 0.0\nsamples = 139\nvalue = [139, 0, 0, 0]\nclass = 0", fillcolor="#e58139"] ;
427 -> 428 ;
429 [label="c7 <= 0.5\nentropy = 0.939\nsamples = 138\nvalue = [49, 0, 89, 0]\nclass = 2", fillcolor="#a6d3f3"] ;
427 -> 429 ;
430 [label="c7 <= -0.5\nentropy = 0.992\nsamples = 94\nvalue = [42, 0, 52, 0]\nclass = 2", fillcolor="#d9ecfa"] ;
429 -> 430 ;
431 [label="c6 <= 0.5\nentropy = 0.667\nsamples = 46\nvalue = [8, 0, 38, 0]\nclass = 2", fillcolor="#63b2ea"] ;
430 -> 431 ;
432 [label="c6 <= -0.5\nentropy = 0.824\nsamples = 31\nvalue = [8, 0, 23, 0]\nclass = 2", fillcolor="#7ebfee"] ;
431 -> 432 ;
433 [label="entropy = 0.0\nsamples = 14\nvalue = [0, 0, 14, 0]\nclass = 2", fillcolor="#399de5"] ;
432 -> 433 ;
434 [label="c4 <= -0.5\nentropy = 0.998\nsamples = 17\nvalue = [8, 0, 9, 0]\nclass = 2", fillcolor="#e9f4fc"] ;
432 -> 434 ;
435 [label="c9 <= -0.5\nentropy = 0.65\nsamples = 6\nvalue = [1, 0, 5, 0]\nclass = 2", fillcolor="#61b1ea"] ;
434 -> 435 ;
436 [label="entropy = 0.0\nsamples = 3\nvalue = [0, 0, 3, 0]\nclass = 2", fillcolor="#399de5"] ;
435 -> 436 ;
437 [label="c3 <= -0.5\nentropy = 0.918\nsamples = 3\nvalue = [1, 0, 2, 0]\nclass = 2", fillcolor="#9ccef2"] ;
435 -> 437 ;
438 [label="entropy = 0.0\nsamples = 1\nvalue = [0, 0, 1, 0]\nclass = 2", fillcolor="#399de5"] ;
437 -> 438 ;
439 [label="c3 <= 0.5\nentropy = 1.0\nsamples = 2\nvalue = [1, 0, 1, 0]\nclass = 0", fillcolor="#ffffff"] ;
437 -> 439 ;
440 [label="entropy = 0.0\nsamples = 1\nvalue = [1, 0, 0, 0]\nclass = 0", fillcolor="#e58139"] ;
439 -> 440 ;
441 [label="entropy = 0.0\nsamples = 1\nvalue = [0, 0, 1, 0]\nclass = 2", fillcolor="#399de5"] ;
439 -> 441 ;
442 [label="c4 <= 0.5\nentropy = 0.946\nsamples = 11\nvalue = [7, 0, 4, 0]\nclass = 0", fillcolor="#f4c9aa"] ;
434 -> 442 ;
443 [label="entropy = 0.0\nsamples = 6\nvalue = [6, 0, 0, 0]\nclass = 0", fillcolor="#e58139"] ;
442 -> 443 ;
444 [label="c9 <= -0.5\nentropy = 0.722\nsamples = 5\nvalue = [1, 0, 4, 0]\nclass = 2", fillcolor="#6ab6ec"] ;
442 -> 444 ;
445 [label="entropy = 0.0\nsamples = 3\nvalue = [0, 0, 3, 0]\nclass = 2", fillcolor="#399de5"] ;
444 -> 445 ;
446 [label="c3 <= -0.5\nentropy = 1.0\nsamples = 2\nvalue = [1, 0, 1, 0]\nclass = 0", fillcolor="#ffffff"] ;
444 -> 446 ;
447 [label="entropy = 0.0\nsamples = 1\nvalue = [0, 0, 1, 0]\nclass = 2", fillcolor="#399de5"] ;
446 -> 447 ;
448 [label="entropy = 0.0\nsamples = 1\nvalue = [1, 0, 0, 0]\nclass = 0", fillcolor="#e58139"] ;
446 -> 448 ;
449 [label="entropy = 0.0\nsamples = 15\nvalue = [0, 0, 15, 0]\nclass = 2", fillcolor="#399de5"] ;
431 -> 449 ;
450 [label="c9 <= -0.5\nentropy = 0.871\nsamples = 48\nvalue = [34, 0, 14, 0]\nclass = 0", fillcolor="#f0b58b"] ;
430 -> 450 ;
451 [label="c3 <= 0.5\nentropy = 0.966\nsamples = 23\nvalue = [9, 0, 14, 0]\nclass = 2", fillcolor="#b8dcf6"] ;
450 -> 451 ;
452 [label="c3 <= -0.5\nentropy = 0.985\nsamples = 14\nvalue = [8, 0, 6, 0]\nclass = 0", fillcolor="#f8e0ce"] ;
451 -> 452 ;
453 [label="c6 <= -0.5\nentropy = 0.592\nsamples = 7\nvalue = [1, 0, 6, 0]\nclass = 2", fillcolor="#5aade9"] ;
452 -> 453 ;
454 [label="entropy = 0.0\nsamples = 3\nvalue = [0, 0, 3, 0]\nclass = 2", fillcolor="#399de5"] ;
453 -> 454 ;
455 [label="c4 <= -0.5\nentropy = 0.811\nsamples = 4\nvalue = [1, 0, 3, 0]\nclass = 2", fillcolor="#7bbeee"] ;
453 -> 455 ;
456 [label="entropy = 0.0\nsamples = 2\nvalue = [0, 0, 2, 0]\nclass = 2", fillcolor="#399de5"] ;
455 -> 456 ;
457 [label="c4 <= 0.5\nentropy = 1.0\nsamples = 2\nvalue = [1, 0, 1, 0]\nclass = 0", fillcolor="#ffffff"] ;
455 -> 457 ;
458 [label="entropy = 0.0\nsamples = 1\nvalue = [1, 0, 0, 0]\nclass = 0", fillcolor="#e58139"] ;
457 -> 458 ;
459 [label="entropy = 0.0\nsamples = 1\nvalue = [0, 0, 1, 0]\nclass = 2", fillcolor="#399de5"] ;
457 -> 459 ;
460 [label="entropy = 0.0\nsamples = 7\nvalue = [7, 0, 0, 0]\nclass = 0", fillcolor="#e58139"] ;
452 -> 460 ;
461 [label="c6 <= -0.5\nentropy = 0.503\nsamples = 9\nvalue = [1, 0, 8, 0]\nclass = 2", fillcolor="#52a9e8"] ;
451 -> 461 ;
462 [label="entropy = 0.0\nsamples = 3\nvalue = [0, 0, 3, 0]\nclass = 2", fillcolor="#399de5"] ;
461 -> 462 ;
463 [label="c6 <= 0.5\nentropy = 0.65\nsamples = 6\nvalue = [1, 0, 5, 0]\nclass = 2", fillcolor="#61b1ea"] ;
461 -> 463 ;
464 [label="c4 <= -0.5\nentropy = 0.918\nsamples = 3\nvalue = [1, 0, 2, 0]\nclass = 2", fillcolor="#9ccef2"] ;
463 -> 464 ;
465 [label="entropy = 0.0\nsamples = 1\nvalue = [0, 0, 1, 0]\nclass = 2", fillcolor="#399de5"] ;
464 -> 465 ;
466 [label="c4 <= 0.5\nentropy = 1.0\nsamples = 2\nvalue = [1, 0, 1, 0]\nclass = 0", fillcolor="#ffffff"] ;
464 -> 466 ;
467 [label="entropy = 0.0\nsamples = 1\nvalue = [1, 0, 0, 0]\nclass = 0", fillcolor="#e58139"] ;
466 -> 467 ;
468 [label="entropy = 0.0\nsamples = 1\nvalue = [0, 0, 1, 0]\nclass = 2", fillcolor="#399de5"] ;
466 -> 468 ;
469 [label="entropy = 0.0\nsamples = 3\nvalue = [0, 0, 3, 0]\nclass = 2", fillcolor="#399de5"] ;
463 -> 469 ;
470 [label="entropy = 0.0\nsamples = 25\nvalue = [25, 0, 0, 0]\nclass = 0", fillcolor="#e58139"] ;
450 -> 470 ;
471 [label="c6 <= -0.5\nentropy = 0.632\nsamples = 44\nvalue = [7, 0, 37, 0]\nclass = 2", fillcolor="#5eb0ea"] ;
429 -> 471 ;
472 [label="entropy = 0.0\nsamples = 15\nvalue = [0, 0, 15, 0]\nclass = 2", fillcolor="#399de5"] ;
471 -> 472 ;
473 [label="c6 <= 0.5\nentropy = 0.797\nsamples = 29\nvalue = [7, 0, 22, 0]\nclass = 2", fillcolor="#78bced"] ;
471 -> 473 ;
474 [label="c4 <= -0.5\nentropy = 1.0\nsamples = 14\nvalue = [7, 0, 7, 0]\nclass = 0", fillcolor="#ffffff"] ;
473 -> 474 ;
475 [label="c9 <= -0.5\nentropy = 0.722\nsamples = 5\nvalue = [1, 0, 4, 0]\nclass = 2", fillcolor="#6ab6ec"] ;
474 -> 475 ;
476 [label="entropy = 0.0\nsamples = 2\nvalue = [0, 0, 2, 0]\nclass = 2", fillcolor="#399de5"] ;
475 -> 476 ;
477 [label="c3 <= -0.5\nentropy = 0.918\nsamples = 3\nvalue = [1, 0, 2, 0]\nclass = 2", fillcolor="#9ccef2"] ;
475 -> 477 ;
478 [label="entropy = 0.0\nsamples = 1\nvalue = [0, 0, 1, 0]\nclass = 2", fillcolor="#399de5"] ;
477 -> 478 ;
479 [label="c3 <= 0.5\nentropy = 1.0\nsamples = 2\nvalue = [1, 0, 1, 0]\nclass = 0", fillcolor="#ffffff"] ;
477 -> 479 ;
480 [label="entropy = 0.0\nsamples = 1\nvalue = [1, 0, 0, 0]\nclass = 0", fillcolor="#e58139"] ;
479 -> 480 ;
481 [label="entropy = 0.0\nsamples = 1\nvalue = [0, 0, 1, 0]\nclass = 2", fillcolor="#399de5"] ;
479 -> 481 ;
482 [label="c4 <= 0.5\nentropy = 0.918\nsamples = 9\nvalue = [6, 0, 3, 0]\nclass = 0", fillcolor="#f2c09c"] ;
474 -> 482 ;
483 [label="entropy = 0.0\nsamples = 5\nvalue = [5, 0, 0, 0]\nclass = 0", fillcolor="#e58139"] ;
482 -> 483 ;
484 [label="c9 <= -0.5\nentropy = 0.811\nsamples = 4\nvalue = [1, 0, 3, 0]\nclass = 2", fillcolor="#7bbeee"] ;
482 -> 484 ;
485 [label="entropy = 0.0\nsamples = 3\nvalue = [0, 0, 3, 0]\nclass = 2", fillcolor="#399de5"] ;
484 -> 485 ;
486 [label="entropy = 0.0\nsamples = 1\nvalue = [1, 0, 0, 0]\nclass = 0", fillcolor="#e58139"] ;
484 -> 486 ;
487 [label="entropy = 0.0\nsamples = 15\nvalue = [0, 0, 15, 0]\nclass = 2", fillcolor="#399de5"] ;
473 -> 487 ;
488 [label="c6 <= 0.5\nentropy = 0.776\nsamples = 406\nvalue = [93, 0, 313, 0]\nclass = 2", fillcolor="#74baed"] ;
316 -> 488 ;
489 [label="c6 <= -0.5\nentropy = 0.879\nsamples = 272\nvalue = [81, 0, 191, 0]\nclass = 2", fillcolor="#8dc7f0"] ;
488 -> 489 ;
490 [label="c3 <= 0.5\nentropy = 0.528\nsamples = 134\nvalue = [16, 0, 118, 0]\nclass = 2", fillcolor="#54aae9"] ;
489 -> 490 ;
491 [label="c3 <= -0.5\nentropy = 0.689\nsamples = 87\nvalue = [16, 0, 71, 0]\nclass = 2", fillcolor="#66b3eb"] ;
490 -> 491 ;
492 [label="entropy = 0.0\nsamples = 43\nvalue = [0, 0, 43, 0]\nclass = 2", fillcolor="#399de5"] ;
491 -> 492 ;
493 [label="c7 <= 0.5\nentropy = 0.946\nsamples = 44\nvalue = [16, 0, 28, 0]\nclass = 2", fillcolor="#aad5f4"] ;
491 -> 493 ;
494 [label="c7 <= -0.5\nentropy = 0.992\nsamples = 29\nvalue = [16, 0, 13, 0]\nclass = 0", fillcolor="#fae7da"] ;
493 -> 494 ;
495 [label="entropy = 0.0\nsamples = 13\nvalue = [0, 0, 13, 0]\nclass = 2", fillcolor="#399de5"] ;
494 -> 495 ;
496 [label="entropy = 0.0\nsamples = 16\nvalue = [16, 0, 0, 0]\nclass = 0", fillcolor="#e58139"] ;
494 -> 496 ;
497 [label="entropy = 0.0\nsamples = 15\nvalue = [0, 0, 15, 0]\nclass = 2", fillcolor="#399de5"] ;
493 -> 497 ;
498 [label="entropy = 0.0\nsamples = 47\nvalue = [0, 0, 47, 0]\nclass = 2", fillcolor="#399de5"] ;
490 -> 498 ;
499 [label="c4 <= 0.5\nentropy = 0.998\nsamples = 138\nvalue = [65, 0, 73, 0]\nclass = 2", fillcolor="#e9f4fc"] ;
489 -> 499 ;
500 [label="c4 <= -0.5\nentropy = 0.958\nsamples = 92\nvalue = [57, 0, 35, 0]\nclass = 0", fillcolor="#f5ceb3"] ;
499 -> 500 ;
501 [label="c3 <= -0.5\nentropy = 0.693\nsamples = 43\nvalue = [8, 0, 35, 0]\nclass = 2", fillcolor="#66b3eb"] ;
500 -> 501 ;
502 [label="entropy = 0.0\nsamples = 15\nvalue = [0, 0, 15, 0]\nclass = 2", fillcolor="#399de5"] ;
501 -> 502 ;
503 [label="c3 <= 0.5\nentropy = 0.863\nsamples = 28\nvalue = [8, 0, 20, 0]\nclass = 2", fillcolor="#88c4ef"] ;
501 -> 503 ;
504 [label="c9 <= -0.5\nentropy = 0.961\nsamples = 13\nvalue = [8, 0, 5, 0]\nclass = 0", fillcolor="#f5d0b5"] ;
503 -> 504 ;
505 [label="c7 <= -0.5\nentropy = 0.863\nsamples = 7\nvalue = [2, 0, 5, 0]\nclass = 2", fillcolor="#88c4ef"] ;
504 -> 505 ;
506 [label="entropy = 0.0\nsamples = 3\nvalue = [0, 0, 3, 0]\nclass = 2", fillcolor="#399de5"] ;
505 -> 506 ;
507 [label="c7 <= 0.5\nentropy = 1.0\nsamples = 4\nvalue = [2, 0, 2, 0]\nclass = 0", fillcolor="#ffffff"] ;
505 -> 507 ;
508 [label="entropy = 0.0\nsamples = 2\nvalue = [2, 0, 0, 0]\nclass = 0", fillcolor="#e58139"] ;
507 -> 508 ;
509 [label="entropy = 0.0\nsamples = 2\nvalue = [0, 0, 2, 0]\nclass = 2", fillcolor="#399de5"] ;
507 -> 509 ;
510 [label="entropy = 0.0\nsamples = 6\nvalue = [6, 0, 0, 0]\nclass = 0", fillcolor="#e58139"] ;
504 -> 510 ;
511 [label="entropy = 0.0\nsamples = 15\nvalue = [0, 0, 15, 0]\nclass = 2", fillcolor="#399de5"] ;
503 -> 511 ;
512 [label="entropy = 0.0\nsamples = 49\nvalue = [49, 0, 0, 0]\nclass = 0", fillcolor="#e58139"] ;
500 -> 512 ;
513 [label="c9 <= -0.5\nentropy = 0.667\nsamples = 46\nvalue = [8, 0, 38, 0]\nclass = 2", fillcolor="#63b2ea"] ;
499 -> 513 ;
514 [label="entropy = 0.0\nsamples = 22\nvalue = [0, 0, 22, 0]\nclass = 2", fillcolor="#399de5"] ;
513 -> 514 ;
515 [label="c3 <= -0.5\nentropy = 0.918\nsamples = 24\nvalue = [8, 0, 16, 0]\nclass = 2", fillcolor="#9ccef2"] ;
513 -> 515 ;
516 [label="entropy = 0.0\nsamples = 9\nvalue = [0, 0, 9, 0]\nclass = 2", fillcolor="#399de5"] ;
515 -> 516 ;
517 [label="c3 <= 0.5\nentropy = 0.997\nsamples = 15\nvalue = [8, 0, 7, 0]\nclass = 0", fillcolor="#fcefe6"] ;
515 -> 517 ;
518 [label="entropy = 0.0\nsamples = 8\nvalue = [8, 0, 0, 0]\nclass = 0", fillcolor="#e58139"] ;
517 -> 518 ;
519 [label="entropy = 0.0\nsamples = 7\nvalue = [0, 0, 7, 0]\nclass = 2", fillcolor="#399de5"] ;
517 -> 519 ;
520 [label="c7 <= 0.5\nentropy = 0.435\nsamples = 134\nvalue = [12, 0, 122, 0]\nclass = 2", fillcolor="#4ca7e8"] ;
488 -> 520 ;
521 [label="c7 <= -0.5\nentropy = 0.587\nsamples = 85\nvalue = [12, 0, 73, 0]\nclass = 2", fillcolor="#5aade9"] ;
520 -> 521 ;
522 [label="entropy = 0.0\nsamples = 46\nvalue = [0, 0, 46, 0]\nclass = 2", fillcolor="#399de5"] ;
521 -> 522 ;
523 [label="c3 <= 0.5\nentropy = 0.89\nsamples = 39\nvalue = [12, 0, 27, 0]\nclass = 2", fillcolor="#91c9f1"] ;
521 -> 523 ;
524 [label="c3 <= -0.5\nentropy = 0.999\nsamples = 25\nvalue = [12, 0, 13, 0]\nclass = 2", fillcolor="#f0f7fd"] ;
523 -> 524 ;
525 [label="entropy = 0.0\nsamples = 13\nvalue = [0, 0, 13, 0]\nclass = 2", fillcolor="#399de5"] ;
524 -> 525 ;
526 [label="entropy = 0.0\nsamples = 12\nvalue = [12, 0, 0, 0]\nclass = 0", fillcolor="#e58139"] ;
524 -> 526 ;
527 [label="entropy = 0.0\nsamples = 14\nvalue = [0, 0, 14, 0]\nclass = 2", fillcolor="#399de5"] ;
523 -> 527 ;
528 [label="entropy = 0.0\nsamples = 49\nvalue = [0, 0, 49, 0]\nclass = 2", fillcolor="#399de5"] ;
520 -> 528 ;
529 [label="c9 <= -0.5\nentropy = 0.888\nsamples = 1263\nvalue = [877, 0, 386, 0]\nclass = 0", fillcolor="#f0b890"] ;
315 -> 529 ;
530 [label="c3 <= 0.5\nentropy = 0.964\nsamples = 631\nvalue = [245, 0, 386, 0]\nclass = 2", fillcolor="#b7dbf6"] ;
529 -> 530 ;
531 [label="c3 <= -0.5\nentropy = 0.994\nsamples = 424\nvalue = [193.0, 0.0, 231.0, 0.0]\nclass = 2", fillcolor="#deeffb"] ;
530 -> 531 ;
532 [label="c4 <= 0.5\nentropy = 0.869\nsamples = 207\nvalue = [60, 0, 147, 0]\nclass = 2", fillcolor="#8ac5f0"] ;
531 -> 532 ;
533 [label="c4 <= -0.5\nentropy = 0.96\nsamples = 136\nvalue = [52, 0, 84, 0]\nclass = 2", fillcolor="#b4daf5"] ;
532 -> 533 ;
534 [label="c2 <= 0.5\nentropy = 0.518\nsamples = 69\nvalue = [8, 0, 61, 0]\nclass = 2", fillcolor="#53aae8"] ;
533 -> 534 ;
535 [label="c2 <= -0.5\nentropy = 0.675\nsamples = 45\nvalue = [8, 0, 37, 0]\nclass = 2", fillcolor="#64b2eb"] ;
534 -> 535 ;
536 [label="entropy = 0.0\nsamples = 23\nvalue = [0, 0, 23, 0]\nclass = 2", fillcolor="#399de5"] ;
535 -> 536 ;
537 [label="c8 <= 0.5\nentropy = 0.946\nsamples = 22\nvalue = [8, 0, 14, 0]\nclass = 2", fillcolor="#aad5f4"] ;
535 -> 537 ;
538 [label="c8 <= -0.5\nentropy = 0.985\nsamples = 14\nvalue = [8, 0, 6, 0]\nclass = 0", fillcolor="#f8e0ce"] ;
537 -> 538 ;
539 [label="entropy = 0.0\nsamples = 6\nvalue = [0, 0, 6, 0]\nclass = 2", fillcolor="#399de5"] ;
538 -> 539 ;
540 [label="entropy = 0.0\nsamples = 8\nvalue = [8, 0, 0, 0]\nclass = 0", fillcolor="#e58139"] ;
538 -> 540 ;
541 [label="entropy = 0.0\nsamples = 8\nvalue = [0, 0, 8, 0]\nclass = 2", fillcolor="#399de5"] ;
537 -> 541 ;
542 [label="entropy = 0.0\nsamples = 24\nvalue = [0, 0, 24, 0]\nclass = 2", fillcolor="#399de5"] ;
534 -> 542 ;
543 [label="c7 <= 0.5\nentropy = 0.928\nsamples = 67\nvalue = [44, 0, 23, 0]\nclass = 0", fillcolor="#f3c3a0"] ;
533 -> 543 ;
544 [label="c7 <= -0.5\nentropy = 0.802\nsamples = 45\nvalue = [34, 0, 11, 0]\nclass = 0", fillcolor="#edaa79"] ;
543 -> 544 ;
545 [label="c6 <= 0.5\nentropy = 0.998\nsamples = 21\nvalue = [10, 0, 11, 0]\nclass = 2", fillcolor="#edf6fd"] ;
544 -> 545 ;
546 [label="c6 <= -0.5\nentropy = 0.94\nsamples = 14\nvalue = [9, 0, 5, 0]\nclass = 0", fillcolor="#f3c7a7"] ;
545 -> 546 ;
547 [label="c8 <= -0.5\nentropy = 0.65\nsamples = 6\nvalue = [1, 0, 5, 0]\nclass = 2", fillcolor="#61b1ea"] ;
546 -> 547 ;
548 [label="entropy = 0.0\nsamples = 3\nvalue = [0, 0, 3, 0]\nclass = 2", fillcolor="#399de5"] ;
547 -> 548 ;
549 [label="c8 <= 0.5\nentropy = 0.918\nsamples = 3\nvalue = [1, 0, 2, 0]\nclass = 2", fillcolor="#9ccef2"] ;
547 -> 549 ;
550 [label="entropy = 0.0\nsamples = 1\nvalue = [1, 0, 0, 0]\nclass = 0", fillcolor="#e58139"] ;
549 -> 550 ;
551 [label="entropy = 0.0\nsamples = 2\nvalue = [0, 0, 2, 0]\nclass = 2", fillcolor="#399de5"] ;
549 -> 551 ;
552 [label="entropy = 0.0\nsamples = 8\nvalue = [8, 0, 0, 0]\nclass = 0", fillcolor="#e58139"] ;
546 -> 552 ;
553 [label="c8 <= 0.5\nentropy = 0.592\nsamples = 7\nvalue = [1, 0, 6, 0]\nclass = 2", fillcolor="#5aade9"] ;
545 -> 553 ;
554 [label="c2 <= -0.5\nentropy = 0.811\nsamples = 4\nvalue = [1, 0, 3, 0]\nclass = 2", fillcolor="#7bbeee"] ;
553 -> 554 ;
555 [label="entropy = 0.0\nsamples = 2\nvalue = [0, 0, 2, 0]\nclass = 2", fillcolor="#399de5"] ;
554 -> 555 ;
556 [label="c2 <= 0.5\nentropy = 1.0\nsamples = 2\nvalue = [1, 0, 1, 0]\nclass = 0", fillcolor="#ffffff"] ;
554 -> 556 ;
557 [label="entropy = 0.0\nsamples = 1\nvalue = [1, 0, 0, 0]\nclass = 0", fillcolor="#e58139"] ;
556 -> 557 ;
558 [label="entropy = 0.0\nsamples = 1\nvalue = [0, 0, 1, 0]\nclass = 2", fillcolor="#399de5"] ;
556 -> 558 ;
559 [label="entropy = 0.0\nsamples = 3\nvalue = [0, 0, 3, 0]\nclass = 2", fillcolor="#399de5"] ;
553 -> 559 ;
560 [label="entropy = 0.0\nsamples = 24\nvalue = [24, 0, 0, 0]\nclass = 0", fillcolor="#e58139"] ;
544 -> 560 ;
561 [label="c6 <= -0.5\nentropy = 0.994\nsamples = 22\nvalue = [10, 0, 12, 0]\nclass = 2", fillcolor="#deeffb"] ;
543 -> 561 ;
562 [label="c2 <= -0.5\nentropy = 0.592\nsamples = 7\nvalue = [1, 0, 6, 0]\nclass = 2", fillcolor="#5aade9"] ;
561 -> 562 ;
563 [label="entropy = 0.0\nsamples = 3\nvalue = [0, 0, 3, 0]\nclass = 2", fillcolor="#399de5"] ;
562 -> 563 ;
564 [label="c8 <= -0.5\nentropy = 0.811\nsamples = 4\nvalue = [1, 0, 3, 0]\nclass = 2", fillcolor="#7bbeee"] ;
562 -> 564 ;
565 [label="entropy = 0.0\nsamples = 2\nvalue = [0, 0, 2, 0]\nclass = 2", fillcolor="#399de5"] ;
564 -> 565 ;
566 [label="c8 <= 0.5\nentropy = 1.0\nsamples = 2\nvalue = [1, 0, 1, 0]\nclass = 0", fillcolor="#ffffff"] ;
564 -> 566 ;
567 [label="entropy = 0.0\nsamples = 1\nvalue = [1, 0, 0, 0]\nclass = 0", fillcolor="#e58139"] ;
566 -> 567 ;
568 [label="entropy = 0.0\nsamples = 1\nvalue = [0, 0, 1, 0]\nclass = 2", fillcolor="#399de5"] ;
566 -> 568 ;
569 [label="c6 <= 0.5\nentropy = 0.971\nsamples = 15\nvalue = [9, 0, 6, 0]\nclass = 0", fillcolor="#f6d5bd"] ;
561 -> 569 ;
570 [label="entropy = 0.0\nsamples = 8\nvalue = [8, 0, 0, 0]\nclass = 0", fillcolor="#e58139"] ;
569 -> 570 ;
571 [label="c2 <= -0.5\nentropy = 0.592\nsamples = 7\nvalue = [1, 0, 6, 0]\nclass = 2", fillcolor="#5aade9"] ;
569 -> 571 ;
572 [label="entropy = 0.0\nsamples = 3\nvalue = [0, 0, 3, 0]\nclass = 2", fillcolor="#399de5"] ;
571 -> 572 ;
573 [label="c8 <= -0.5\nentropy = 0.811\nsamples = 4\nvalue = [1, 0, 3, 0]\nclass = 2", fillcolor="#7bbeee"] ;
571 -> 573 ;
574 [label="entropy = 0.0\nsamples = 2\nvalue = [0, 0, 2, 0]\nclass = 2", fillcolor="#399de5"] ;
573 -> 574 ;
575 [label="c8 <= 0.5\nentropy = 1.0\nsamples = 2\nvalue = [1, 0, 1, 0]\nclass = 0", fillcolor="#ffffff"] ;
573 -> 575 ;
576 [label="entropy = 0.0\nsamples = 1\nvalue = [1, 0, 0, 0]\nclass = 0", fillcolor="#e58139"] ;
575 -> 576 ;
577 [label="entropy = 0.0\nsamples = 1\nvalue = [0, 0, 1, 0]\nclass = 2", fillcolor="#399de5"] ;
575 -> 577 ;
578 [label="c8 <= 0.5\nentropy = 0.508\nsamples = 71\nvalue = [8, 0, 63, 0]\nclass = 2", fillcolor="#52a9e8"] ;
532 -> 578 ;
579 [label="c8 <= -0.5\nentropy = 0.667\nsamples = 46\nvalue = [8, 0, 38, 0]\nclass = 2", fillcolor="#63b2ea"] ;
578 -> 579 ;
580 [label="entropy = 0.0\nsamples = 21\nvalue = [0, 0, 21, 0]\nclass = 2", fillcolor="#399de5"] ;
579 -> 580 ;
581 [label="c2 <= 0.5\nentropy = 0.904\nsamples = 25\nvalue = [8, 0, 17, 0]\nclass = 2", fillcolor="#96cbf1"] ;
579 -> 581 ;
582 [label="c2 <= -0.5\nentropy = 1.0\nsamples = 16\nvalue = [8, 0, 8, 0]\nclass = 0", fillcolor="#ffffff"] ;
581 -> 582 ;
583 [label="entropy = 0.0\nsamples = 8\nvalue = [0, 0, 8, 0]\nclass = 2", fillcolor="#399de5"] ;
582 -> 583 ;
584 [label="entropy = 0.0\nsamples = 8\nvalue = [8, 0, 0, 0]\nclass = 0", fillcolor="#e58139"] ;
582 -> 584 ;
585 [label="entropy = 0.0\nsamples = 9\nvalue = [0, 0, 9, 0]\nclass = 2", fillcolor="#399de5"] ;
581 -> 585 ;
586 [label="entropy = 0.0\nsamples = 25\nvalue = [0, 0, 25, 0]\nclass = 2", fillcolor="#399de5"] ;
578 -> 586 ;
587 [label="c7 <= -0.5\nentropy = 0.963\nsamples = 217\nvalue = [133, 0, 84, 0]\nclass = 0", fillcolor="#f5d1b6"] ;
531 -> 587 ;
588 [label="c2 <= -0.5\nentropy = 0.98\nsamples = 72\nvalue = [30, 0, 42, 0]\nclass = 2", fillcolor="#c6e3f8"] ;
587 -> 588 ;
589 [label="c4 <= 0.5\nentropy = 0.426\nsamples = 23\nvalue = [2, 0, 21, 0]\nclass = 2", fillcolor="#4ca6e7"] ;
588 -> 589 ;
590 [label="c4 <= -0.5\nentropy = 0.592\nsamples = 14\nvalue = [2, 0, 12, 0]\nclass = 2", fillcolor="#5aade9"] ;
589 -> 590 ;
591 [label="entropy = 0.0\nsamples = 7\nvalue = [0, 0, 7, 0]\nclass = 2", fillcolor="#399de5"] ;
590 -> 591 ;
592 [label="c6 <= 0.5\nentropy = 0.863\nsamples = 7\nvalue = [2, 0, 5, 0]\nclass = 2", fillcolor="#88c4ef"] ;
590 -> 592 ;
593 [label="c6 <= -0.5\nentropy = 1.0\nsamples = 4\nvalue = [2, 0, 2, 0]\nclass = 0", fillcolor="#ffffff"] ;
592 -> 593 ;
594 [label="entropy = 0.0\nsamples = 2\nvalue = [0, 0, 2, 0]\nclass = 2", fillcolor="#399de5"] ;
593 -> 594 ;
595 [label="entropy = 0.0\nsamples = 2\nvalue = [2, 0, 0, 0]\nclass = 0", fillcolor="#e58139"] ;
593 -> 595 ;
596 [label="entropy = 0.0\nsamples = 3\nvalue = [0, 0, 3, 0]\nclass = 2", fillcolor="#399de5"] ;
592 -> 596 ;
597 [label="entropy = 0.0\nsamples = 9\nvalue = [0, 0, 9, 0]\nclass = 2", fillcolor="#399de5"] ;
589 -> 597 ;
598 [label="c2 <= 0.5\nentropy = 0.985\nsamples = 49\nvalue = [28, 0, 21, 0]\nclass = 0", fillcolor="#f8e0ce"] ;
588 -> 598 ;
599 [label="entropy = 0.0\nsamples = 25\nvalue = [25, 0, 0, 0]\nclass = 0", fillcolor="#e58139"] ;
598 -> 599 ;
600 [label="c4 <= 0.5\nentropy = 0.544\nsamples = 24\nvalue = [3, 0, 21, 0]\nclass = 2", fillcolor="#55abe9"] ;
598 -> 600 ;
601 [label="c4 <= -0.5\nentropy = 0.722\nsamples = 15\nvalue = [3, 0, 12, 0]\nclass = 2", fillcolor="#6ab6ec"] ;
600 -> 601 ;
602 [label="entropy = 0.0\nsamples = 6\nvalue = [0, 0, 6, 0]\nclass = 2", fillcolor="#399de5"] ;
601 -> 602 ;
603 [label="c6 <= -0.5\nentropy = 0.918\nsamples = 9\nvalue = [3, 0, 6, 0]\nclass = 2", fillcolor="#9ccef2"] ;
601 -> 603 ;
604 [label="entropy = 0.0\nsamples = 3\nvalue = [0, 0, 3, 0]\nclass = 2", fillcolor="#399de5"] ;
603 -> 604 ;
605 [label="c6 <= 0.5\nentropy = 1.0\nsamples = 6\nvalue = [3, 0, 3, 0]\nclass = 0", fillcolor="#ffffff"] ;
603 -> 605 ;
606 [label="entropy = 0.0\nsamples = 3\nvalue = [3, 0, 0, 0]\nclass = 0", fillcolor="#e58139"] ;
605 -> 606 ;
607 [label="entropy = 0.0\nsamples = 3\nvalue = [0, 0, 3, 0]\nclass = 2", fillcolor="#399de5"] ;
605 -> 607 ;
608 [label="entropy = 0.0\nsamples = 9\nvalue = [0, 0, 9, 0]\nclass = 2", fillcolor="#399de5"] ;
600 -> 608 ;
609 [label="c7 <= 0.5\nentropy = 0.868\nsamples = 145\nvalue = [103, 0, 42, 0]\nclass = 0", fillcolor="#f0b48a"] ;
587 -> 609 ;
610 [label="entropy = 0.0\nsamples = 73\nvalue = [73, 0, 0, 0]\nclass = 0", fillcolor="#e58139"] ;
609 -> 610 ;
611 [label="c2 <= -0.5\nentropy = 0.98\nsamples = 72\nvalue = [30, 0, 42, 0]\nclass = 2", fillcolor="#c6e3f8"] ;
609 -> 611 ;
612 [label="c6 <= 0.5\nentropy = 0.544\nsamples = 24\nvalue = [3, 0, 21, 0]\nclass = 2", fillcolor="#55abe9"] ;
611 -> 612 ;
613 [label="c6 <= -0.5\nentropy = 0.722\nsamples = 15\nvalue = [3, 0, 12, 0]\nclass = 2", fillcolor="#6ab6ec"] ;
612 -> 613 ;
614 [label="entropy = 0.0\nsamples = 7\nvalue = [0, 0, 7, 0]\nclass = 2", fillcolor="#399de5"] ;
613 -> 614 ;
615 [label="c4 <= 0.5\nentropy = 0.954\nsamples = 8\nvalue = [3, 0, 5, 0]\nclass = 2", fillcolor="#b0d8f5"] ;
613 -> 615 ;
616 [label="c4 <= -0.5\nentropy = 0.971\nsamples = 5\nvalue = [3, 0, 2, 0]\nclass = 0", fillcolor="#f6d5bd"] ;
615 -> 616 ;
617 [label="entropy = 0.0\nsamples = 2\nvalue = [0, 0, 2, 0]\nclass = 2", fillcolor="#399de5"] ;
616 -> 617 ;
618 [label="entropy = 0.0\nsamples = 3\nvalue = [3, 0, 0, 0]\nclass = 0", fillcolor="#e58139"] ;
616 -> 618 ;
619 [label="entropy = 0.0\nsamples = 3\nvalue = [0, 0, 3, 0]\nclass = 2", fillcolor="#399de5"] ;
615 -> 619 ;
620 [label="entropy = 0.0\nsamples = 9\nvalue = [0, 0, 9, 0]\nclass = 2", fillcolor="#399de5"] ;
612 -> 620 ;
621 [label="c2 <= 0.5\nentropy = 0.989\nsamples = 48\nvalue = [27, 0, 21, 0]\nclass = 0", fillcolor="#f9e3d3"] ;
611 -> 621 ;
622 [label="entropy = 0.0\nsamples = 24\nvalue = [24, 0, 0, 0]\nclass = 0", fillcolor="#e58139"] ;
621 -> 622 ;
623 [label="c6 <= 0.5\nentropy = 0.544\nsamples = 24\nvalue = [3, 0, 21, 0]\nclass = 2", fillcolor="#55abe9"] ;
621 -> 623 ;
624 [label="c6 <= -0.5\nentropy = 0.722\nsamples = 15\nvalue = [3, 0, 12, 0]\nclass = 2", fillcolor="#6ab6ec"] ;
623 -> 624 ;
625 [label="entropy = 0.0\nsamples = 8\nvalue = [0, 0, 8, 0]\nclass = 2", fillcolor="#399de5"] ;
624 -> 625 ;
626 [label="c4 <= -0.5\nentropy = 0.985\nsamples = 7\nvalue = [3, 0, 4, 0]\nclass = 2", fillcolor="#cee6f8"] ;
624 -> 626 ;
627 [label="entropy = 0.0\nsamples = 3\nvalue = [0, 0, 3, 0]\nclass = 2", fillcolor="#399de5"] ;
626 -> 627 ;
628 [label="c4 <= 0.5\nentropy = 0.811\nsamples = 4\nvalue = [3, 0, 1, 0]\nclass = 0", fillcolor="#eeab7b"] ;
626 -> 628 ;
629 [label="entropy = 0.0\nsamples = 3\nvalue = [3, 0, 0, 0]\nclass = 0", fillcolor="#e58139"] ;
628 -> 629 ;
630 [label="entropy = 0.0\nsamples = 1\nvalue = [0, 0, 1, 0]\nclass = 2", fillcolor="#399de5"] ;
628 -> 630 ;
631 [label="entropy = 0.0\nsamples = 9\nvalue = [0, 0, 9, 0]\nclass = 2", fillcolor="#399de5"] ;
623 -> 631 ;
632 [label="c4 <= -0.5\nentropy = 0.813\nsamples = 207\nvalue = [52, 0, 155, 0]\nclass = 2", fillcolor="#7bbeee"] ;
530 -> 632 ;
633 [label="c8 <= 0.5\nentropy = 0.46\nsamples = 72\nvalue = [7, 0, 65, 0]\nclass = 2", fillcolor="#4ea8e8"] ;
632 -> 633 ;
634 [label="c8 <= -0.5\nentropy = 0.615\nsamples = 46\nvalue = [7, 0, 39, 0]\nclass = 2", fillcolor="#5dafea"] ;
633 -> 634 ;
635 [label="entropy = 0.0\nsamples = 22\nvalue = [0, 0, 22, 0]\nclass = 2", fillcolor="#399de5"] ;
634 -> 635 ;
636 [label="c2 <= 0.5\nentropy = 0.871\nsamples = 24\nvalue = [7, 0, 17, 0]\nclass = 2", fillcolor="#8bc5f0"] ;
634 -> 636 ;
637 [label="c2 <= -0.5\nentropy = 0.997\nsamples = 15\nvalue = [7, 0, 8, 0]\nclass = 2", fillcolor="#e6f3fc"] ;
636 -> 637 ;
638 [label="entropy = 0.0\nsamples = 8\nvalue = [0, 0, 8, 0]\nclass = 2", fillcolor="#399de5"] ;
637 -> 638 ;
639 [label="entropy = 0.0\nsamples = 7\nvalue = [7, 0, 0, 0]\nclass = 0", fillcolor="#e58139"] ;
637 -> 639 ;
640 [label="entropy = 0.0\nsamples = 9\nvalue = [0, 0, 9, 0]\nclass = 2", fillcolor="#399de5"] ;
636 -> 640 ;
641 [label="entropy = 0.0\nsamples = 26\nvalue = [0, 0, 26, 0]\nclass = 2", fillcolor="#399de5"] ;
633 -> 641 ;
642 [label="c4 <= 0.5\nentropy = 0.918\nsamples = 135\nvalue = [45, 0, 90, 0]\nclass = 2", fillcolor="#9ccef2"] ;
632 -> 642 ;
643 [label="c6 <= -0.5\nentropy = 0.989\nsamples = 66\nvalue = [37, 0, 29, 0]\nclass = 0", fillcolor="#f9e4d4"] ;
642 -> 643 ;
644 [label="c7 <= -0.5\nentropy = 0.863\nsamples = 21\nvalue = [6, 0, 15, 0]\nclass = 2", fillcolor="#88c4ef"] ;
643 -> 644 ;
645 [label="entropy = 0.0\nsamples = 8\nvalue = [0, 0, 8, 0]\nclass = 2", fillcolor="#399de5"] ;
644 -> 645 ;
646 [label="c7 <= 0.5\nentropy = 0.996\nsamples = 13\nvalue = [6, 0, 7, 0]\nclass = 2", fillcolor="#e3f1fb"] ;
644 -> 646 ;
647 [label="entropy = 0.0\nsamples = 5\nvalue = [5, 0, 0, 0]\nclass = 0", fillcolor="#e58139"] ;
646 -> 647 ;
648 [label="c8 <= -0.5\nentropy = 0.544\nsamples = 8\nvalue = [1, 0, 7, 0]\nclass = 2", fillcolor="#55abe9"] ;
646 -> 648 ;
649 [label="entropy = 0.0\nsamples = 3\nvalue = [0, 0, 3, 0]\nclass = 2", fillcolor="#399de5"] ;
648 -> 649 ;
650 [label="c8 <= 0.5\nentropy = 0.722\nsamples = 5\nvalue = [1, 0, 4, 0]\nclass = 2", fillcolor="#6ab6ec"] ;
648 -> 650 ;
651 [label="c2 <= -0.5\nentropy = 1.0\nsamples = 2\nvalue = [1, 0, 1, 0]\nclass = 0", fillcolor="#ffffff"] ;
650 -> 651 ;
652 [label="entropy = 0.0\nsamples = 1\nvalue = [0, 0, 1, 0]\nclass = 2", fillcolor="#399de5"] ;
651 -> 652 ;
653 [label="entropy = 0.0\nsamples = 1\nvalue = [1, 0, 0, 0]\nclass = 0", fillcolor="#e58139"] ;
651 -> 653 ;
654 [label="entropy = 0.0\nsamples = 3\nvalue = [0, 0, 3, 0]\nclass = 2", fillcolor="#399de5"] ;
650 -> 654 ;
655 [label="c6 <= 0.5\nentropy = 0.894\nsamples = 45\nvalue = [31, 0, 14, 0]\nclass = 0", fillcolor="#f1ba92"] ;
643 -> 655 ;
656 [label="entropy = 0.0\nsamples = 22\nvalue = [22, 0, 0, 0]\nclass = 0", fillcolor="#e58139"] ;
655 -> 656 ;
657 [label="c7 <= 0.5\nentropy = 0.966\nsamples = 23\nvalue = [9, 0, 14, 0]\nclass = 2", fillcolor="#b8dcf6"] ;
655 -> 657 ;
658 [label="c7 <= -0.5\nentropy = 0.989\nsamples = 16\nvalue = [9, 0, 7, 0]\nclass = 0", fillcolor="#f9e3d3"] ;
657 -> 658 ;
659 [label="c8 <= -0.5\nentropy = 0.544\nsamples = 8\nvalue = [1, 0, 7, 0]\nclass = 2", fillcolor="#55abe9"] ;
658 -> 659 ;
660 [label="entropy = 0.0\nsamples = 3\nvalue = [0, 0, 3, 0]\nclass = 2", fillcolor="#399de5"] ;
659 -> 660 ;
661 [label="c2 <= -0.5\nentropy = 0.722\nsamples = 5\nvalue = [1, 0, 4, 0]\nclass = 2", fillcolor="#6ab6ec"] ;
659 -> 661 ;
662 [label="entropy = 0.0\nsamples = 2\nvalue = [0, 0, 2, 0]\nclass = 2", fillcolor="#399de5"] ;
661 -> 662 ;
663 [label="c2 <= 0.5\nentropy = 0.918\nsamples = 3\nvalue = [1, 0, 2, 0]\nclass = 2", fillcolor="#9ccef2"] ;
661 -> 663 ;
664 [label="entropy = 0.0\nsamples = 1\nvalue = [1, 0, 0, 0]\nclass = 0", fillcolor="#e58139"] ;
663 -> 664 ;
665 [label="entropy = 0.0\nsamples = 2\nvalue = [0, 0, 2, 0]\nclass = 2", fillcolor="#399de5"] ;
663 -> 665 ;
666 [label="entropy = 0.0\nsamples = 8\nvalue = [8, 0, 0, 0]\nclass = 0", fillcolor="#e58139"] ;
658 -> 666 ;
667 [label="entropy = 0.0\nsamples = 7\nvalue = [0, 0, 7, 0]\nclass = 2", fillcolor="#399de5"] ;
657 -> 667 ;
668 [label="c8 <= -0.5\nentropy = 0.518\nsamples = 69\nvalue = [8, 0, 61, 0]\nclass = 2", fillcolor="#53aae8"] ;
642 -> 668 ;
669 [label="entropy = 0.0\nsamples = 24\nvalue = [0, 0, 24, 0]\nclass = 2", fillcolor="#399de5"] ;
668 -> 669 ;
670 [label="c8 <= 0.5\nentropy = 0.675\nsamples = 45\nvalue = [8, 0, 37, 0]\nclass = 2", fillcolor="#64b2eb"] ;
668 -> 670 ;
671 [label="c2 <= -0.5\nentropy = 0.932\nsamples = 23\nvalue = [8, 0, 15, 0]\nclass = 2", fillcolor="#a3d1f3"] ;
670 -> 671 ;
672 [label="entropy = 0.0\nsamples = 8\nvalue = [0, 0, 8, 0]\nclass = 2", fillcolor="#399de5"] ;
671 -> 672 ;
673 [label="c2 <= 0.5\nentropy = 0.997\nsamples = 15\nvalue = [8, 0, 7, 0]\nclass = 0", fillcolor="#fcefe6"] ;
671 -> 673 ;
674 [label="entropy = 0.0\nsamples = 8\nvalue = [8, 0, 0, 0]\nclass = 0", fillcolor="#e58139"] ;
673 -> 674 ;
675 [label="entropy = 0.0\nsamples = 7\nvalue = [0, 0, 7, 0]\nclass = 2", fillcolor="#399de5"] ;
673 -> 675 ;
676 [label="entropy = 0.0\nsamples = 22\nvalue = [0, 0, 22, 0]\nclass = 2", fillcolor="#399de5"] ;
670 -> 676 ;
677 [label="entropy = 0.0\nsamples = 632\nvalue = [632, 0, 0, 0]\nclass = 0", fillcolor="#e58139"] ;
529 -> 677 ;
678 [label="c8 <= 0.5\nentropy = 1.503\nsamples = 1204\nvalue = [380.0, 212.0, 606.0, 6.0]\nclass = 2", fillcolor="#c9e4f8"] ;
314 -> 678 ;
679 [label="c3 <= 0.5\nentropy = 1.337\nsamples = 807\nvalue = [289, 64, 449, 5]\nclass = 2", fillcolor="#c2e1f7"] ;
678 -> 679 ;
680 [label="c3 <= -0.5\nentropy = 1.021\nsamples = 566\nvalue = [233, 0, 330, 3]\nclass = 2", fillcolor="#c5e2f7"] ;
679 -> 680 ;
681 [label="c8 <= -0.5\nentropy = 0.872\nsamples = 287\nvalue = [84, 0, 203, 0]\nclass = 2", fillcolor="#8bc6f0"] ;
680 -> 681 ;
682 [label="c4 <= 0.5\nentropy = 0.594\nsamples = 146\nvalue = [21, 0, 125, 0]\nclass = 2", fillcolor="#5aade9"] ;
681 -> 682 ;
683 [label="c4 <= -0.5\nentropy = 0.754\nsamples = 97\nvalue = [21, 0, 76, 0]\nclass = 2", fillcolor="#70b8ec"] ;
682 -> 683 ;
684 [label="entropy = 0.0\nsamples = 47\nvalue = [0, 0, 47, 0]\nclass = 2", fillcolor="#399de5"] ;
683 -> 684 ;
685 [label="c6 <= 0.5\nentropy = 0.981\nsamples = 50\nvalue = [21.0, 0.0, 29.0, 0.0]\nclass = 2", fillcolor="#c8e4f8"] ;
683 -> 685 ;
686 [label="c6 <= -0.5\nentropy = 0.99\nsamples = 34\nvalue = [19, 0, 15, 0]\nclass = 0", fillcolor="#fae4d5"] ;
685 -> 686 ;
687 [label="c1 <= -0.5\nentropy = 0.65\nsamples = 18\nvalue = [3, 0, 15, 0]\nclass = 2", fillcolor="#61b1ea"] ;
686 -> 687 ;
688 [label="entropy = 0.0\nsamples = 9\nvalue = [0, 0, 9, 0]\nclass = 2", fillcolor="#399de5"] ;
687 -> 688 ;
689 [label="c7 <= -0.5\nentropy = 0.918\nsamples = 9\nvalue = [3, 0, 6, 0]\nclass = 2", fillcolor="#9ccef2"] ;
687 -> 689 ;
690 [label="entropy = 0.0\nsamples = 3\nvalue = [0, 0, 3, 0]\nclass = 2", fillcolor="#399de5"] ;
689 -> 690 ;
691 [label="c7 <= 0.5\nentropy = 1.0\nsamples = 6\nvalue = [3, 0, 3, 0]\nclass = 0", fillcolor="#ffffff"] ;
689 -> 691 ;
692 [label="entropy = 0.0\nsamples = 3\nvalue = [3, 0, 0, 0]\nclass = 0", fillcolor="#e58139"] ;
691 -> 692 ;
693 [label="entropy = 0.0\nsamples = 3\nvalue = [0, 0, 3, 0]\nclass = 2", fillcolor="#399de5"] ;
691 -> 693 ;
694 [label="entropy = 0.0\nsamples = 16\nvalue = [16, 0, 0, 0]\nclass = 0", fillcolor="#e58139"] ;
686 -> 694 ;
695 [label="c1 <= -0.5\nentropy = 0.544\nsamples = 16\nvalue = [2, 0, 14, 0]\nclass = 2", fillcolor="#55abe9"] ;
685 -> 695 ;
696 [label="entropy = 0.0\nsamples = 8\nvalue = [0, 0, 8, 0]\nclass = 2", fillcolor="#399de5"] ;
695 -> 696 ;
697 [label="c7 <= -0.5\nentropy = 0.811\nsamples = 8\nvalue = [2, 0, 6, 0]\nclass = 2", fillcolor="#7bbeee"] ;
695 -> 697 ;
698 [label="entropy = 0.0\nsamples = 3\nvalue = [0, 0, 3, 0]\nclass = 2", fillcolor="#399de5"] ;
697 -> 698 ;
699 [label="c7 <= 0.5\nentropy = 0.971\nsamples = 5\nvalue = [2, 0, 3, 0]\nclass = 2", fillcolor="#bddef6"] ;
697 -> 699 ;
700 [label="entropy = 0.0\nsamples = 2\nvalue = [2, 0, 0, 0]\nclass = 0", fillcolor="#e58139"] ;
699 -> 700 ;
701 [label="entropy = 0.0\nsamples = 3\nvalue = [0, 0, 3, 0]\nclass = 2", fillcolor="#399de5"] ;
699 -> 701 ;
702 [label="entropy = 0.0\nsamples = 49\nvalue = [0, 0, 49, 0]\nclass = 2", fillcolor="#399de5"] ;
682 -> 702 ;
703 [label="c2 <= -0.5\nentropy = 0.992\nsamples = 141\nvalue = [63, 0, 78, 0]\nclass = 2", fillcolor="#d9ecfa"] ;
681 -> 703 ;
704 [label="c4 <= 0.5\nentropy = 0.65\nsamples = 48\nvalue = [8, 0, 40, 0]\nclass = 2", fillcolor="#61b1ea"] ;
703 -> 704 ;
705 [label="c4 <= -0.5\nentropy = 0.811\nsamples = 32\nvalue = [8, 0, 24, 0]\nclass = 2", fillcolor="#7bbeee"] ;
704 -> 705 ;
706 [label="entropy = 0.0\nsamples = 15\nvalue = [0, 0, 15, 0]\nclass = 2", fillcolor="#399de5"] ;
705 -> 706 ;
707 [label="c6 <= -0.5\nentropy = 0.998\nsamples = 17\nvalue = [8, 0, 9, 0]\nclass = 2", fillcolor="#e9f4fc"] ;
705 -> 707 ;
708 [label="c1 <= -0.5\nentropy = 0.65\nsamples = 6\nvalue = [1, 0, 5, 0]\nclass = 2", fillcolor="#61b1ea"] ;
707 -> 708 ;
709 [label="entropy = 0.0\nsamples = 3\nvalue = [0, 0, 3, 0]\nclass = 2", fillcolor="#399de5"] ;
708 -> 709 ;
710 [label="c7 <= -0.5\nentropy = 0.918\nsamples = 3\nvalue = [1, 0, 2, 0]\nclass = 2", fillcolor="#9ccef2"] ;
708 -> 710 ;
711 [label="entropy = 0.0\nsamples = 1\nvalue = [0, 0, 1, 0]\nclass = 2", fillcolor="#399de5"] ;
710 -> 711 ;
712 [label="c7 <= 0.5\nentropy = 1.0\nsamples = 2\nvalue = [1, 0, 1, 0]\nclass = 0", fillcolor="#ffffff"] ;
710 -> 712 ;
713 [label="entropy = 0.0\nsamples = 1\nvalue = [1, 0, 0, 0]\nclass = 0", fillcolor="#e58139"] ;
712 -> 713 ;
714 [label="entropy = 0.0\nsamples = 1\nvalue = [0, 0, 1, 0]\nclass = 2", fillcolor="#399de5"] ;
712 -> 714 ;
715 [label="c6 <= 0.5\nentropy = 0.946\nsamples = 11\nvalue = [7, 0, 4, 0]\nclass = 0", fillcolor="#f4c9aa"] ;
707 -> 715 ;
716 [label="entropy = 0.0\nsamples = 6\nvalue = [6, 0, 0, 0]\nclass = 0", fillcolor="#e58139"] ;
715 -> 716 ;
717 [label="c7 <= -0.5\nentropy = 0.722\nsamples = 5\nvalue = [1, 0, 4, 0]\nclass = 2", fillcolor="#6ab6ec"] ;
715 -> 717 ;
718 [label="entropy = 0.0\nsamples = 2\nvalue = [0, 0, 2, 0]\nclass = 2", fillcolor="#399de5"] ;
717 -> 718 ;
719 [label="c1 <= -0.5\nentropy = 0.918\nsamples = 3\nvalue = [1, 0, 2, 0]\nclass = 2", fillcolor="#9ccef2"] ;
717 -> 719 ;
720 [label="entropy = 0.0\nsamples = 1\nvalue = [0, 0, 1, 0]\nclass = 2", fillcolor="#399de5"] ;
719 -> 720 ;
721 [label="c7 <= 0.5\nentropy = 1.0\nsamples = 2\nvalue = [1, 0, 1, 0]\nclass = 0", fillcolor="#ffffff"] ;
719 -> 721 ;
722 [label="entropy = 0.0\nsamples = 1\nvalue = [1, 0, 0, 0]\nclass = 0", fillcolor="#e58139"] ;
721 -> 722 ;
723 [label="entropy = 0.0\nsamples = 1\nvalue = [0, 0, 1, 0]\nclass = 2", fillcolor="#399de5"] ;
721 -> 723 ;
724 [label="entropy = 0.0\nsamples = 16\nvalue = [0, 0, 16, 0]\nclass = 2", fillcolor="#399de5"] ;
704 -> 724 ;
725 [label="c2 <= 0.5\nentropy = 0.976\nsamples = 93\nvalue = [55, 0, 38, 0]\nclass = 0", fillcolor="#f7d8c2"] ;
703 -> 725 ;
726 [label="entropy = 0.0\nsamples = 48\nvalue = [48, 0, 0, 0]\nclass = 0", fillcolor="#e58139"] ;
725 -> 726 ;
727 [label="c4 <= 0.5\nentropy = 0.624\nsamples = 45\nvalue = [7, 0, 38, 0]\nclass = 2", fillcolor="#5dafea"] ;
725 -> 727 ;
728 [label="c4 <= -0.5\nentropy = 0.797\nsamples = 29\nvalue = [7, 0, 22, 0]\nclass = 2", fillcolor="#78bced"] ;
727 -> 728 ;
729 [label="entropy = 0.0\nsamples = 15\nvalue = [0, 0, 15, 0]\nclass = 2", fillcolor="#399de5"] ;
728 -> 729 ;
730 [label="c6 <= 0.5\nentropy = 1.0\nsamples = 14\nvalue = [7, 0, 7, 0]\nclass = 0", fillcolor="#ffffff"] ;
728 -> 730 ;
731 [label="c6 <= -0.5\nentropy = 0.918\nsamples = 9\nvalue = [6, 0, 3, 0]\nclass = 0", fillcolor="#f2c09c"] ;
730 -> 731 ;
732 [label="c1 <= -0.5\nentropy = 0.811\nsamples = 4\nvalue = [1, 0, 3, 0]\nclass = 2", fillcolor="#7bbeee"] ;
731 -> 732 ;
733 [label="entropy = 0.0\nsamples = 2\nvalue = [0, 0, 2, 0]\nclass = 2", fillcolor="#399de5"] ;
732 -> 733 ;
734 [label="c7 <= 0.5\nentropy = 1.0\nsamples = 2\nvalue = [1, 0, 1, 0]\nclass = 0", fillcolor="#ffffff"] ;
732 -> 734 ;
735 [label="entropy = 0.0\nsamples = 1\nvalue = [1, 0, 0, 0]\nclass = 0", fillcolor="#e58139"] ;
734 -> 735 ;
736 [label="entropy = 0.0\nsamples = 1\nvalue = [0, 0, 1, 0]\nclass = 2", fillcolor="#399de5"] ;
734 -> 736 ;
737 [label="entropy = 0.0\nsamples = 5\nvalue = [5, 0, 0, 0]\nclass = 0", fillcolor="#e58139"] ;
731 -> 737 ;
738 [label="c1 <= -0.5\nentropy = 0.722\nsamples = 5\nvalue = [1, 0, 4, 0]\nclass = 2", fillcolor="#6ab6ec"] ;
730 -> 738 ;
739 [label="entropy = 0.0\nsamples = 3\nvalue = [0, 0, 3, 0]\nclass = 2", fillcolor="#399de5"] ;
738 -> 739 ;
740 [label="c7 <= -0.5\nentropy = 1.0\nsamples = 2\nvalue = [1, 0, 1, 0]\nclass = 0", fillcolor="#ffffff"] ;
738 -> 740 ;
741 [label="entropy = 0.0\nsamples = 1\nvalue = [0, 0, 1, 0]\nclass = 2", fillcolor="#399de5"] ;
740 -> 741 ;
742 [label="entropy = 0.0\nsamples = 1\nvalue = [1, 0, 0, 0]\nclass = 0", fillcolor="#e58139"] ;
740 -> 742 ;
743 [label="entropy = 0.0\nsamples = 16\nvalue = [0, 0, 16, 0]\nclass = 2", fillcolor="#399de5"] ;
727 -> 743 ;
744 [label="c7 <= 0.5\nentropy = 1.07\nsamples = 279\nvalue = [149.0, 0.0, 127.0, 3.0]\nclass = 0", fillcolor="#fbede2"] ;
680 -> 744 ;
745 [label="c7 <= -0.5\nentropy = 0.931\nsamples = 182\nvalue = [119, 0, 63, 0]\nclass = 0", fillcolor="#f3c4a2"] ;
744 -> 745 ;
746 [label="c2 <= 0.5\nentropy = 0.928\nsamples = 96\nvalue = [33, 0, 63, 0]\nclass = 2", fillcolor="#a1d0f3"] ;
745 -> 746 ;
747 [label="c2 <= -0.5\nentropy = 0.995\nsamples = 63\nvalue = [29, 0, 34, 0]\nclass = 2", fillcolor="#e2f1fb"] ;
746 -> 747 ;
748 [label="c4 <= -0.5\nentropy = 0.567\nsamples = 30\nvalue = [4, 0, 26, 0]\nclass = 2", fillcolor="#57ace9"] ;
747 -> 748 ;
749 [label="entropy = 0.0\nsamples = 10\nvalue = [0, 0, 10, 0]\nclass = 2", fillcolor="#399de5"] ;
748 -> 749 ;
750 [label="c4 <= 0.5\nentropy = 0.722\nsamples = 20\nvalue = [4, 0, 16, 0]\nclass = 2", fillcolor="#6ab6ec"] ;
748 -> 750 ;
751 [label="c6 <= -0.5\nentropy = 0.946\nsamples = 11\nvalue = [4, 0, 7, 0]\nclass = 2", fillcolor="#aad5f4"] ;
750 -> 751 ;
752 [label="entropy = 0.0\nsamples = 4\nvalue = [0, 0, 4, 0]\nclass = 2", fillcolor="#399de5"] ;
751 -> 752 ;
753 [label="c6 <= 0.5\nentropy = 0.985\nsamples = 7\nvalue = [4, 0, 3, 0]\nclass = 0", fillcolor="#f8e0ce"] ;
751 -> 753 ;
754 [label="entropy = 0.0\nsamples = 4\nvalue = [4, 0, 0, 0]\nclass = 0", fillcolor="#e58139"] ;
753 -> 754 ;
755 [label="entropy = 0.0\nsamples = 3\nvalue = [0, 0, 3, 0]\nclass = 2", fillcolor="#399de5"] ;
753 -> 755 ;
756 [label="entropy = 0.0\nsamples = 9\nvalue = [0, 0, 9, 0]\nclass = 2", fillcolor="#399de5"] ;
750 -> 756 ;
757 [label="c8 <= -0.5\nentropy = 0.799\nsamples = 33\nvalue = [25, 0, 8, 0]\nclass = 0", fillcolor="#eda978"] ;
747 -> 757 ;
758 [label="c1 <= -0.5\nentropy = 0.998\nsamples = 17\nvalue = [9, 0, 8, 0]\nclass = 0", fillcolor="#fcf1e9"] ;
757 -> 758 ;
759 [label="c6 <= -0.5\nentropy = 0.503\nsamples = 9\nvalue = [1, 0, 8, 0]\nclass = 2", fillcolor="#52a9e8"] ;
758 -> 759 ;
760 [label="entropy = 0.0\nsamples = 3\nvalue = [0, 0, 3, 0]\nclass = 2", fillcolor="#399de5"] ;
759 -> 760 ;
761 [label="c6 <= 0.5\nentropy = 0.65\nsamples = 6\nvalue = [1, 0, 5, 0]\nclass = 2", fillcolor="#61b1ea"] ;
759 -> 761 ;
762 [label="c4 <= -0.5\nentropy = 0.918\nsamples = 3\nvalue = [1, 0, 2, 0]\nclass = 2", fillcolor="#9ccef2"] ;
761 -> 762 ;
763 [label="entropy = 0.0\nsamples = 1\nvalue = [0, 0, 1, 0]\nclass = 2", fillcolor="#399de5"] ;
762 -> 763 ;
764 [label="c4 <= 0.5\nentropy = 1.0\nsamples = 2\nvalue = [1, 0, 1, 0]\nclass = 0", fillcolor="#ffffff"] ;
762 -> 764 ;
765 [label="entropy = 0.0\nsamples = 1\nvalue = [1, 0, 0, 0]\nclass = 0", fillcolor="#e58139"] ;
764 -> 765 ;
766 [label="entropy = 0.0\nsamples = 1\nvalue = [0, 0, 1, 0]\nclass = 2", fillcolor="#399de5"] ;
764 -> 766 ;
767 [label="entropy = 0.0\nsamples = 3\nvalue = [0, 0, 3, 0]\nclass = 2", fillcolor="#399de5"] ;
761 -> 767 ;
768 [label="entropy = 0.0\nsamples = 8\nvalue = [8, 0, 0, 0]\nclass = 0", fillcolor="#e58139"] ;
758 -> 768 ;
769 [label="entropy = 0.0\nsamples = 16\nvalue = [16, 0, 0, 0]\nclass = 0", fillcolor="#e58139"] ;
757 -> 769 ;
770 [label="c6 <= -0.5\nentropy = 0.533\nsamples = 33\nvalue = [4, 0, 29, 0]\nclass = 2", fillcolor="#54abe9"] ;
746 -> 770 ;
771 [label="entropy = 0.0\nsamples = 12\nvalue = [0, 0, 12, 0]\nclass = 2", fillcolor="#399de5"] ;
770 -> 771 ;
772 [label="c6 <= 0.5\nentropy = 0.702\nsamples = 21\nvalue = [4, 0, 17, 0]\nclass = 2", fillcolor="#68b4eb"] ;
770 -> 772 ;
773 [label="c4 <= 0.5\nentropy = 0.946\nsamples = 11\nvalue = [4, 0, 7, 0]\nclass = 2", fillcolor="#aad5f4"] ;
772 -> 773 ;
774 [label="c4 <= -0.5\nentropy = 0.985\nsamples = 7\nvalue = [4, 0, 3, 0]\nclass = 0", fillcolor="#f8e0ce"] ;
773 -> 774 ;
775 [label="entropy = 0.0\nsamples = 3\nvalue = [0, 0, 3, 0]\nclass = 2", fillcolor="#399de5"] ;
774 -> 775 ;
776 [label="entropy = 0.0\nsamples = 4\nvalue = [4, 0, 0, 0]\nclass = 0", fillcolor="#e58139"] ;
774 -> 776 ;
777 [label="entropy = 0.0\nsamples = 4\nvalue = [0, 0, 4, 0]\nclass = 2", fillcolor="#399de5"] ;
773 -> 777 ;
778 [label="entropy = 0.0\nsamples = 10\nvalue = [0, 0, 10, 0]\nclass = 2", fillcolor="#399de5"] ;
772 -> 778 ;
779 [label="entropy = 0.0\nsamples = 86\nvalue = [86, 0, 0, 0]\nclass = 0", fillcolor="#e58139"] ;
745 -> 779 ;
780 [label="c2 <= 0.5\nentropy = 1.075\nsamples = 97\nvalue = [30, 0, 64, 3]\nclass = 2", fillcolor="#9bcdf2"] ;
744 -> 780 ;
781 [label="c2 <= -0.5\nentropy = 0.974\nsamples = 64\nvalue = [26, 0, 38, 0]\nclass = 2", fillcolor="#c0e0f7"] ;
780 -> 781 ;
782 [label="c4 <= 0.5\nentropy = 0.523\nsamples = 34\nvalue = [4, 0, 30, 0]\nclass = 2", fillcolor="#53aae8"] ;
781 -> 782 ;
783 [label="c4 <= -0.5\nentropy = 0.684\nsamples = 22\nvalue = [4, 0, 18, 0]\nclass = 2", fillcolor="#65b3eb"] ;
782 -> 783 ;
784 [label="entropy = 0.0\nsamples = 11\nvalue = [0, 0, 11, 0]\nclass = 2", fillcolor="#399de5"] ;
783 -> 784 ;
785 [label="c6 <= -0.5\nentropy = 0.946\nsamples = 11\nvalue = [4, 0, 7, 0]\nclass = 2", fillcolor="#aad5f4"] ;
783 -> 785 ;
786 [label="entropy = 0.0\nsamples = 4\nvalue = [0, 0, 4, 0]\nclass = 2", fillcolor="#399de5"] ;
785 -> 786 ;
787 [label="c6 <= 0.5\nentropy = 0.985\nsamples = 7\nvalue = [4, 0, 3, 0]\nclass = 0", fillcolor="#f8e0ce"] ;
785 -> 787 ;
788 [label="entropy = 0.0\nsamples = 4\nvalue = [4, 0, 0, 0]\nclass = 0", fillcolor="#e58139"] ;
787 -> 788 ;
789 [label="entropy = 0.0\nsamples = 3\nvalue = [0, 0, 3, 0]\nclass = 2", fillcolor="#399de5"] ;
787 -> 789 ;
790 [label="entropy = 0.0\nsamples = 12\nvalue = [0, 0, 12, 0]\nclass = 2", fillcolor="#399de5"] ;
782 -> 790 ;
791 [label="c8 <= -0.5\nentropy = 0.837\nsamples = 30\nvalue = [22, 0, 8, 0]\nclass = 0", fillcolor="#eeaf81"] ;
781 -> 791 ;
792 [label="c1 <= -0.5\nentropy = 1.0\nsamples = 16\nvalue = [8, 0, 8, 0]\nclass = 0", fillcolor="#ffffff"] ;
791 -> 792 ;
793 [label="c4 <= -0.5\nentropy = 0.503\nsamples = 9\nvalue = [1, 0, 8, 0]\nclass = 2", fillcolor="#52a9e8"] ;
792 -> 793 ;
794 [label="entropy = 0.0\nsamples = 3\nvalue = [0, 0, 3, 0]\nclass = 2", fillcolor="#399de5"] ;
793 -> 794 ;
795 [label="c4 <= 0.5\nentropy = 0.65\nsamples = 6\nvalue = [1, 0, 5, 0]\nclass = 2", fillcolor="#61b1ea"] ;
793 -> 795 ;
796 [label="c6 <= -0.5\nentropy = 0.918\nsamples = 3\nvalue = [1, 0, 2, 0]\nclass = 2", fillcolor="#9ccef2"] ;
795 -> 796 ;
797 [label="entropy = 0.0\nsamples = 1\nvalue = [0, 0, 1, 0]\nclass = 2", fillcolor="#399de5"] ;
796 -> 797 ;
798 [label="c6 <= 0.5\nentropy = 1.0\nsamples = 2\nvalue = [1, 0, 1, 0]\nclass = 0", fillcolor="#ffffff"] ;
796 -> 798 ;
799 [label="entropy = 0.0\nsamples = 1\nvalue = [1, 0, 0, 0]\nclass = 0", fillcolor="#e58139"] ;
798 -> 799 ;
800 [label="entropy = 0.0\nsamples = 1\nvalue = [0, 0, 1, 0]\nclass = 2", fillcolor="#399de5"] ;
798 -> 800 ;
801 [label="entropy = 0.0\nsamples = 3\nvalue = [0, 0, 3, 0]\nclass = 2", fillcolor="#399de5"] ;
795 -> 801 ;
802 [label="entropy = 0.0\nsamples = 7\nvalue = [7, 0, 0, 0]\nclass = 0", fillcolor="#e58139"] ;
792 -> 802 ;
803 [label="entropy = 0.0\nsamples = 14\nvalue = [14, 0, 0, 0]\nclass = 0", fillcolor="#e58139"] ;
791 -> 803 ;
804 [label="c4 <= -0.5\nentropy = 0.955\nsamples = 33\nvalue = [4, 0, 26, 3]\nclass = 2", fillcolor="#69b5eb"] ;
780 -> 804 ;
805 [label="entropy = 0.0\nsamples = 11\nvalue = [0, 0, 11, 0]\nclass = 2", fillcolor="#399de5"] ;
804 -> 805 ;
806 [label="c6 <= -0.5\nentropy = 1.216\nsamples = 22\nvalue = [4.0, 0.0, 15.0, 3.0]\nclass = 2", fillcolor="#86c3ef"] ;
804 -> 806 ;
807 [label="entropy = 0.0\nsamples = 7\nvalue = [0, 0, 7, 0]\nclass = 2", fillcolor="#399de5"] ;
806 -> 807 ;
808 [label="c6 <= 0.5\nentropy = 1.457\nsamples = 15\nvalue = [4, 0, 8, 3]\nclass = 2", fillcolor="#b7dbf6"] ;
806 -> 808 ;
809 [label="c4 <= 0.5\nentropy = 1.379\nsamples = 7\nvalue = [4, 0, 2, 1]\nclass = 0", fillcolor="#f5cdb0"] ;
808 -> 809 ;
810 [label="entropy = 0.0\nsamples = 4\nvalue = [4, 0, 0, 0]\nclass = 0", fillcolor="#e58139"] ;
809 -> 810 ;
811 [label="c8 <= -0.5\nentropy = 0.918\nsamples = 3\nvalue = [0, 0, 2, 1]\nclass = 2", fillcolor="#9ccef2"] ;
809 -> 811 ;
812 [label="entropy = 0.0\nsamples = 2\nvalue = [0, 0, 2, 0]\nclass = 2", fillcolor="#399de5"] ;
811 -> 812 ;
813 [label="entropy = 0.0\nsamples = 1\nvalue = [0, 0, 0, 1]\nclass = 3", fillcolor="#d739e5"] ;
811 -> 813 ;
814 [label="c8 <= -0.5\nentropy = 0.811\nsamples = 8\nvalue = [0, 0, 6, 2]\nclass = 2", fillcolor="#7bbeee"] ;
808 -> 814 ;
815 [label="entropy = 0.0\nsamples = 4\nvalue = [0, 0, 4, 0]\nclass = 2", fillcolor="#399de5"] ;
814 -> 815 ;
816 [label="c1 <= -0.5\nentropy = 1.0\nsamples = 4\nvalue = [0, 0, 2, 2]\nclass = 2", fillcolor="#ffffff"] ;
814 -> 816 ;
817 [label="entropy = 0.0\nsamples = 2\nvalue = [0, 0, 2, 0]\nclass = 2", fillcolor="#399de5"] ;
816 -> 817 ;
818 [label="entropy = 0.0\nsamples = 2\nvalue = [0, 0, 0, 2]\nclass = 3", fillcolor="#d739e5"] ;
816 -> 818 ;
819 [label="c6 <= 0.5\nentropy = 1.557\nsamples = 241\nvalue = [56, 64, 119, 2]\nclass = 2", fillcolor="#c1e1f7"] ;
679 -> 819 ;
820 [label="c6 <= -0.5\nentropy = 0.983\nsamples = 177\nvalue = [56.0, 0.0, 119.0, 2.0]\nclass = 2", fillcolor="#98ccf1"] ;
819 -> 820 ;
821 [label="c8 <= -0.5\nentropy = 0.68\nsamples = 89\nvalue = [16, 0, 73, 0]\nclass = 2", fillcolor="#64b2eb"] ;
820 -> 821 ;
822 [label="c1 <= -0.5\nentropy = 0.359\nsamples = 44\nvalue = [3, 0, 41, 0]\nclass = 2", fillcolor="#47a4e7"] ;
821 -> 822 ;
823 [label="entropy = 0.0\nsamples = 22\nvalue = [0, 0, 22, 0]\nclass = 2", fillcolor="#399de5"] ;
822 -> 823 ;
824 [label="c4 <= -0.5\nentropy = 0.575\nsamples = 22\nvalue = [3, 0, 19, 0]\nclass = 2", fillcolor="#58ace9"] ;
822 -> 824 ;
825 [label="entropy = 0.0\nsamples = 7\nvalue = [0, 0, 7, 0]\nclass = 2", fillcolor="#399de5"] ;
824 -> 825 ;
826 [label="c4 <= 0.5\nentropy = 0.722\nsamples = 15\nvalue = [3, 0, 12, 0]\nclass = 2", fillcolor="#6ab6ec"] ;
824 -> 826 ;
827 [label="c7 <= -0.5\nentropy = 0.918\nsamples = 9\nvalue = [3, 0, 6, 0]\nclass = 2", fillcolor="#9ccef2"] ;
826 -> 827 ;
828 [label="entropy = 0.0\nsamples = 3\nvalue = [0, 0, 3, 0]\nclass = 2", fillcolor="#399de5"] ;
827 -> 828 ;
829 [label="c7 <= 0.5\nentropy = 1.0\nsamples = 6\nvalue = [3, 0, 3, 0]\nclass = 0", fillcolor="#ffffff"] ;
827 -> 829 ;
830 [label="entropy = 0.0\nsamples = 3\nvalue = [3, 0, 0, 0]\nclass = 0", fillcolor="#e58139"] ;
829 -> 830 ;
831 [label="entropy = 0.0\nsamples = 3\nvalue = [0, 0, 3, 0]\nclass = 2", fillcolor="#399de5"] ;
829 -> 831 ;
832 [label="entropy = 0.0\nsamples = 6\nvalue = [0, 0, 6, 0]\nclass = 2", fillcolor="#399de5"] ;
826 -> 832 ;
833 [label="c2 <= -0.5\nentropy = 0.867\nsamples = 45\nvalue = [13.0, 0.0, 32.0, 0.0]\nclass = 2", fillcolor="#89c5f0"] ;
821 -> 833 ;
834 [label="c1 <= -0.5\nentropy = 0.323\nsamples = 17\nvalue = [1, 0, 16, 0]\nclass = 2", fillcolor="#45a3e7"] ;
833 -> 834 ;
835 [label="entropy = 0.0\nsamples = 8\nvalue = [0, 0, 8, 0]\nclass = 2", fillcolor="#399de5"] ;
834 -> 835 ;
836 [label="c4 <= -0.5\nentropy = 0.503\nsamples = 9\nvalue = [1, 0, 8, 0]\nclass = 2", fillcolor="#52a9e8"] ;
834 -> 836 ;
837 [label="entropy = 0.0\nsamples = 3\nvalue = [0, 0, 3, 0]\nclass = 2", fillcolor="#399de5"] ;
836 -> 837 ;
838 [label="c4 <= 0.5\nentropy = 0.65\nsamples = 6\nvalue = [1, 0, 5, 0]\nclass = 2", fillcolor="#61b1ea"] ;
836 -> 838 ;
839 [label="c7 <= -0.5\nentropy = 0.918\nsamples = 3\nvalue = [1, 0, 2, 0]\nclass = 2", fillcolor="#9ccef2"] ;
838 -> 839 ;
840 [label="entropy = 0.0\nsamples = 1\nvalue = [0, 0, 1, 0]\nclass = 2", fillcolor="#399de5"] ;
839 -> 840 ;
841 [label="c7 <= 0.5\nentropy = 1.0\nsamples = 2\nvalue = [1, 0, 1, 0]\nclass = 0", fillcolor="#ffffff"] ;
839 -> 841 ;
842 [label="entropy = 0.0\nsamples = 1\nvalue = [1, 0, 0, 0]\nclass = 0", fillcolor="#e58139"] ;
841 -> 842 ;
843 [label="entropy = 0.0\nsamples = 1\nvalue = [0, 0, 1, 0]\nclass = 2", fillcolor="#399de5"] ;
841 -> 843 ;
844 [label="entropy = 0.0\nsamples = 3\nvalue = [0, 0, 3, 0]\nclass = 2", fillcolor="#399de5"] ;
838 -> 844 ;
